{"learner":{"attributes":{"scikit_learn":"{\"_estimator_type\": \"classifier\"}"},"feature_names":["vehicle_utilization","billed_utilization","total_volume_pool","revenue_per_kent_leg","high_acuity_share","non_billable_noshow","road_hours_per_vehicle","contract_concentration","cost_per_road_hour"],"feature_types":["float","float","float","float","float","float","float","float","float"],"gradient_booster":{"model":{"cats":{"enc":[],"feature_segments":[],"sorted_idx":[]},"gbtree_model_param":{"num_parallel_tree":"1","num_trees":"450"},"iteration_indptr":[0,1,2,3,4,5,6,7,8,9,10,11,12,13,14,15,16,17,18,19,20,21,22,23,24,25,26,27,28,29,30,31,32,33,34,35,36,37,38,39,40,41,42,43,44,45,46,47,48,49,50,51,52,53,54,55,56,57,58,59,60,61,62,63,64,65,66,67,68,69,70,71,72,73,74,75,76,77,78,79,80,81,82,83,84,85,86,87,88,89,90,91,92,93,94,95,96,97,98,99,100,101,102,103,104,105,106,107,108,109,110,111,112,113,114,115,116,117,118,119,120,121,122,123,124,125,126,127,128,129,130,131,132,133,134,135,136,137,138,139,140,141,142,143,144,145,146,147,148,149,150,151,152,153,154,155,156,157,158,159,160,161,162,163,164,165,166,167,168,169,170,171,172,173,174,175,176,177,178,179,180,181,182,183,184,185,186,187,188,189,190,191,192,193,194,195,196,197,198,199,200,201,202,203,204,205,206,207,208,209,210,211,212,213,214,215,216,217,218,219,220,221,222,223,224,225,226,227,228,229,230,231,232,233,234,235,236,237,238,239,240,241,242,243,244,245,246,247,248,249,250,251,252,253,254,255,256,257,258,259,260,261,262,263,264,265,266,267,268,269,270,271,272,273,274,275,276,277,278,279,280,281,282,283,284,285,286,287,288,289,290,291,292,293,294,295,296,297,298,299,300,301,302,303,304,305,306,307,308,309,310,311,312,313,314,315,316,317,318,319,320,321,322,323,324,325,326,327,328,329,330,331,332,333,334,335,336,337,338,339,340,341,342,343,344,345,346,347,348,349,350,351,352,353,354,355,356,357,358,359,360,361,362,363,364,365,366,367,368,369,370,371,372,373,374,375,376,377,378,379,380,381,382,383,384,385,386,387,388,389,390,391,392,393,394,395,396,397,398,399,400,401,402,403,404,405,406,407,408,409,410,411,412,413,414,415,416,417,418,419,420,421,422,423,424,425,426,427,428,429,430,431,432,433,434,435,436,437,438,439,440,441,442,443,444,445,446,447,448,449,450],"tree_info":[0,0,0,0,0,0,0,0,0,0,0,0,0,0,0,0,0,0,0,0,0,0,0,0,0,0,0,0,0,0,0,0,0,0,0,0,0,0,0,0,0,0,0,0,0,0,0,0,0,0,0,0,0,0,0,0,0,0,0,0,0,0,0,0,0,0,0,0,0,0,0,0,0,0,0,0,0,0,0,0,0,0,0,0,0,0,0,0,0,0,0,0,0,0,0,0,0,0,0,0,0,0,0,0,0,0,0,0,0,0,0,0,0,0,0,0,0,0,0,0,0,0,0,0,0,0,0,0,0,0,0,0,0,0,0,0,0,0,0,0,0,0,0,0,0,0,0,0,0,0,0,0,0,0,0,0,0,0,0,0,0,0,0,0,0,0,0,0,0,0,0,0,0,0,0,0,0,0,0,0,0,0,0,0,0,0,0,0,0,0,0,0,0,0,0,0,0,0,0,0,0,0,0,0,0,0,0,0,0,0,0,0,0,0,0,0,0,0,0,0,0,0,0,0,0,0,0,0,0,0,0,0,0,0,0,0,0,0,0,0,0,0,0,0,0,0,0,0,0,0,0,0,0,0,0,0,0,0,0,0,0,0,0,0,0,0,0,0,0,0,0,0,0,0,0,0,0,0,0,0,0,0,0,0,0,0,0,0,0,0,0,0,0,0,0,0,0,0,0,0,0,0,0,0,0,0,0,0,0,0,0,0,0,0,0,0,0,0,0,0,0,0,0,0,0,0,0,0,0,0,0,0,0,0,0,0,0,0,0,0,0,0,0,0,0,0,0,0,0,0,0,0,0,0,0,0,0,0,0,0,0,0,0,0,0,0,0,0,0,0,0,0,0,0,0,0,0,0,0,0,0,0,0,0,0,0,0,0,0,0,0,0,0,0,0,0,0,0,0,0,0,0,0,0,0,0,0,0,0,0,0,0,0,0,0,0,0,0,0,0,0,0,0,0,0,0,0,0,0,0,0,0,0,0,0,0,0,0,0,0,0,0,0,0,0,0,0,0,0,0],"trees":[{"base_weights":[-1.1965397E-2,-7.9293035E-2,4.7971672E-1,7.3557127E-1,-7.815498E-2,-7.701046E-2,9.188251E-1,1.093953E0,-7.648506E-2,-7.591002E-2,5.0435394E-2],"categories":[],"categories_nodes":[],"categories_segments":[],"categories_sizes":[],"default_left":[0,0,0,0,0,0,0,0,0,0,0],"id":0,"left_children":[1,-1,3,5,-1,-1,7,9,-1,-1,-1],"loss_changes":[6.8614984E2,0E0,3.5443774E2,2.5249191E2,0E0,0E0,2.4110654E2,2.2962543E2,0E0,0E0,0E0],"parents":[2147483647,0,0,2,2,3,3,6,6,7,7],"right_children":[2,-1,4,6,-1,-1,8,10,-1,-1,-1],"split_conditions":[4.9809378E-2,-7.9293035E-2,1.00725584E-1,7.00002E1,-7.815498E-2,-7.701046E-2,2.0003451E-1,9.497231E-1,-7.648506E-2,-7.591002E-2,5.0435394E-2],"split_indices":[4,0,5,3,0,0,7,0,0,0,0],"split_type":[0,0,0,0,0,0,0,0,0,0,0],"sum_hessian":[7.057207E2,1.4025E2,5.654707E2,5.124707E2,5.3E1,3.225E1,4.802207E2,4.529707E2,2.725E1,2.325E1,4.297207E2],"tree_param":{"num_deleted":"0","num_feature":"9","num_nodes":"11","size_leaf_vector":"1"}},{"base_weights":[5.3901738E-3,4.746803E-1,-7.713714E-2,-7.644141E-2,7.296878E-1,-7.673759E-2,9.216943E-1,-7.654981E-2,1.0794438E0,4.971773E-2,-7.316918E-2],"categories":[],"categories_nodes":[],"categories_segments":[],"categories_sizes":[],"default_left":[0,0,0,0,0,0,0,0,0,0,0],"id":1,"left_children":[1,3,-1,-1,5,-1,7,-1,9,-1,-1],"loss_changes":[6.460371E2,3.5016138E2,0E0,0E0,2.6570007E2,0E0,2.1904944E2,0E0,2.2126086E2,0E0,0E0],"parents":[2147483647,0,0,1,1,4,4,6,6,8,8],"right_children":[2,4,-1,-1,6,-1,8,-1,10,-1,-1],"split_conditions":[5.033128E1,9.003977E0,-7.713714E-2,-7.644141E-2,1.2003468E0,-7.673759E-2,1.0498892E0,-7.654981E-2,2.0003451E-1,4.971773E-2,-7.316918E-2],"split_indices":[8,6,0,0,2,0,1,0,7,0,0],"split_type":[0,0,0,0,0,0,0,0,0,0,0],"sum_hessian":[7.096191E2,5.7181165E2,1.3780743E2,5.4427902E1,5.173837E2,3.421293E1,4.831708E2,2.4727072E1,4.5844373E2,4.347288E2,2.3714941E1],"tree_param":{"num_deleted":"0","num_feature":"9","num_nodes":"11","size_leaf_vector":"1"}},{"base_weights":[7.8759855E-3,-7.4235655E-2,4.688003E-1,7.1578187E-1,-7.453243E-2,-7.420933E-2,8.983816E-1,1.0699701E0,-7.122611E-2,-7.444981E-2,4.9231667E-2],"categories":[],"categories_nodes":[],"categories_segments":[],"categories_sizes":[],"default_left":[0,0,0,0,0,0,0,0,0,0,0],"id":2,"left_children":[1,-1,3,5,-1,-1,7,9,-1,-1,-1],"loss_changes":[6.065073E2,0E0,3.2760345E2,2.4268164E2,0E0,0E0,2.2273337E2,2.155799E2,0E0,0E0,0E0],"parents":[2147483647,0,0,2,2,3,3,6,6,7,7],"right_children":[2,-1,4,6,-1,-1,8,10,-1,-1,-1],"split_conditions":[4.9809378E-2,-7.4235655E-2,5.033128E1,7.00002E1,-7.453243E-2,-7.420933E-2,2.0003451E-1,9.497231E-1,-7.122611E-2,-7.444981E-2,4.9231667E-2],"split_indices":[4,0,8,3,0,0,7,0,0,0,0],"split_type":[0,0,0,0,0,0,0,0,0,0,0],"sum_hessian":[7.037623E2,1.3877419E2,5.6498816E2,5.1167404E2,5.331412E1,3.3165264E1,4.7850876E2,4.5041815E2,2.8090618E1,2.2734669E1,4.2768347E2],"tree_param":{"num_deleted":"0","num_feature":"9","num_nodes":"11","size_leaf_vector":"1"}},{"base_weights":[3.8746893E-3,-7.1743175E-2,4.468411E-1,6.9728774E-1,-7.20834E-2,8.741662E-1,-7.388601E-2,-7.159699E-2,1.028739E0,4.749351E-2,-6.849768E-2],"categories":[],"categories_nodes":[],"categories_segments":[],"categories_sizes":[],"default_left":[0,0,0,0,0,0,0,0,0,0,0],"id":3,"left_children":[1,-1,3,5,-1,7,-1,-1,9,-1,-1],"loss_changes":[5.6607336E2,0E0,3.227588E2,2.3330212E2,0E0,2.0050336E2,0E0,0E0,2.006756E2,0E0,0E0],"parents":[2147483647,0,0,2,2,3,3,5,5,8,8],"right_children":[2,-1,4,6,-1,8,-1,-1,10,-1,-1],"split_conditions":[4.9809378E-2,-7.1743175E-2,5.033128E1,1.00725584E-1,-7.20834E-2,7.00002E1,-7.388601E-2,-7.159699E-2,2.0003451E-1,4.749351E-2,-6.849768E-2],"split_indices":[4,0,8,5,0,3,0,0,7,0,0],"split_type":[0,0,0,0,0,0,0,0,0,0,0],"sum_hessian":[7.087196E2,1.39357E2,5.693626E2,5.130953E2,5.626731E1,4.805187E2,3.2576576E1,2.561948E1,4.5489923E2,4.3069678E2,2.4202469E1],"tree_param":{"num_deleted":"0","num_feature":"9","num_nodes":"11","size_leaf_vector":"1"}},{"base_weights":[1.5755892E-2,-6.951572E-2,4.4514912E-1,-7.280656E-2,6.6933286E-1,-7.180279E-2,8.443186E-1,-7.4207224E-2,9.9832875E-1,4.624062E-2,-6.649589E-2],"categories":[],"categories_nodes":[],"categories_segments":[],"categories_sizes":[],"default_left":[0,0,0,0,0,0,0,0,0,0,0],"id":4,"left_children":[1,-1,3,-1,5,-1,7,-1,9,-1,-1],"loss_changes":[5.2781946E2,0E0,2.8737918E2,0E0,2.2313026E2,0E0,2.0179626E2,0E0,1.932124E2,0E0,0E0],"parents":[2147483647,0,0,2,2,4,4,6,6,8,8],"right_children":[2,-1,4,-1,6,-1,8,-1,10,-1,-1],"split_conditions":[4.9809378E-2,-6.951572E-2,1.0498892E0,-7.280656E-2,9.497231E-1,-7.180279E-2,1.2003468E0,-7.4207224E-2,2.0003451E-1,4.624062E-2,-6.649589E-2],"split_indices":[4,0,1,0,0,0,2,0,7,0,0],"split_type":[0,0,0,0,0,0,0,0,0,0,0],"sum_hessian":[6.9868964E2,1.366636E2,5.6202606E2,4.9802002E1,5.1222406E2,3.318489E1,4.7903915E2,2.5104336E1,4.539348E2,4.2921387E2,2.4720953E1],"tree_param":{"num_deleted":"0","num_feature":"9","num_nodes":"11","size_leaf_vector":"1"}},{"base_weights":[2.1174327E-2,-6.94897E-2,4.3643188E-1,-6.746155E-2,6.736989E-1,8.418199E-1,-6.9566496E-2,-7.002261E-2,9.877601E-1,-7.3303804E-2,4.508616E-2],"categories":[],"categories_nodes":[],"categories_segments":[],"categories_sizes":[],"default_left":[0,0,0,0,0,0,0,0,0,0,0],"id":5,"left_children":[1,-1,3,-1,5,7,-1,-1,9,-1,-1],"loss_changes":[5.1260406E2,0E0,2.873895E2,0E0,2.0929456E2,1.8335004E2,0E0,0E0,1.8112958E2,0E0,0E0],"parents":[2147483647,0,0,2,2,4,4,5,5,8,8],"right_children":[2,-1,4,-1,6,8,-1,-1,10,-1,-1],"split_conditions":[9.003977E0,-6.94897E-2,4.9809378E-2,-6.746155E-2,5.033128E1,9.497231E-1,-6.9566496E-2,-7.002261E-2,1.0498892E0,-7.3303804E-2,4.508616E-2],"split_indices":[6,0,4,0,8,0,0,0,1,0,0],"split_type":[0,0,0,0,0,0,0,0,0,0,0],"sum_hessian":[6.997411E2,1.3290233E2,5.6683875E2,5.6203243E1,5.1063553E2,4.7814273E2,3.249278E1,2.4743124E1,4.5339963E2,2.0633259E1,4.3276636E2],"tree_param":{"num_deleted":"0","num_feature":"9","num_nodes":"11","size_leaf_vector":"1"}},{"base_weights":[-2.2949912E-3,3.897902E-1,-1.6657522E0,6.15903E-1,-6.7016214E-2,-2.4094969E-2,-6.7330234E-2,-7.134214E-2,7.767016E-1,-6.811979E-2,9.237111E-1,-7.019409E-2,4.2714927E-2],"categories":[],"categories_nodes":[],"categories_segments":[],"categories_sizes":[],"default_left":[0,0,0,0,0,0,0,0,0,0,0,0,0],"id":6,"left_children":[1,3,5,7,-1,-1,-1,-1,9,-1,11,-1,-1],"loss_changes":[4.5235477E2,2.631332E2,1.0172424E0,1.9703146E2,0E0,0E0,0E0,0E0,1.752131E2,0E0,1.7589719E2,0E0,0E0],"parents":[2147483647,0,0,1,1,2,2,3,3,8,8,10,10],"right_children":[2,4,6,8,-1,-1,-1,-1,10,-1,12,-1,-1],"split_conditions":[9.972182E-2,5.033128E1,1.00725584E-1,1.2003468E0,-6.7016214E-2,-2.4094969E-2,-6.7330234E-2,-7.134214E-2,9.497231E-1,-6.811979E-2,1.0498892E0,-7.019409E-2,4.2714927E-2],"split_indices":[5,8,5,2,0,0,0,0,0,0,1,0,0],"split_type":[0,0,0,0,0,0,0,0,0,0,0,0,0],"sum_hessian":[6.909746E2,5.5986926E2,1.311053E2,5.0542245E2,5.4446823E1,2.9037998E0,1.2820149E2,3.0943768E1,4.744787E2,2.5806343E1,4.4867236E2,2.219442E1,4.2647794E2],"tree_param":{"num_deleted":"0","num_feature":"9","num_nodes":"13","size_leaf_vector":"1"}},{"base_weights":[-6.786404E-3,-6.5824606E-2,3.765445E-1,5.971724E-1,-6.515685E-2,-6.5162644E-2,7.700626E-1,9.1276544E-1,-7.072903E-2,-7.105411E-2,4.171419E-2],"categories":[],"categories_nodes":[],"categories_segments":[],"categories_sizes":[],"default_left":[0,0,0,0,0,0,0,0,0,0,0],"id":7,"left_children":[1,-1,3,5,-1,-1,7,9,-1,-1,-1],"loss_changes":[4.3703094E2,0E0,2.5043613E2,1.9720238E2,0E0,0E0,1.7313321E2,1.5905515E2,0E0,0E0,0E0],"parents":[2147483647,0,0,2,2,3,3,6,6,7,7],"right_children":[2,-1,4,6,-1,-1,8,10,-1,-1,-1],"split_conditions":[7.00002E1,-6.5824606E-2,5.033128E1,4.9809378E-2,-6.515685E-2,-6.5162644E-2,1.00725584E-1,1.2003468E0,-7.072903E-2,-7.105411E-2,4.171419E-2],"split_indices":[3,0,8,4,0,0,5,2,0,0,0],"split_type":[0,0,0,0,0,0,0,0,0,0,0],"sum_hessian":[6.930868E2,1.3068546E2,5.6240137E2,5.0746588E2,5.4935463E1,3.5799866E1,4.7166602E2,4.4732523E2,2.4340792E1,1.9905136E1,4.2742007E2],"tree_param":{"num_deleted":"0","num_feature":"9","num_nodes":"11","size_leaf_vector":"1"}},{"base_weights":[-1.1254926E-2,-6.551414E-2,3.5513237E-1,-6.497201E-2,5.7846934E-1,7.527441E-1,-6.608171E-2,-6.803477E-2,9.146899E-1,-6.4287975E-2,4.1941907E-2],"categories":[],"categories_nodes":[],"categories_segments":[],"categories_sizes":[],"default_left":[0,0,0,0,0,0,0,0,0,0,0],"id":8,"left_children":[1,-1,3,-1,5,7,-1,-1,9,-1,-1],"loss_changes":[4.1123175E2,0E0,2.4990439E2,0E0,1.984175E2,1.8892706E2,0E0,0E0,1.5138452E2,0E0,0E0],"parents":[2147483647,0,0,2,2,4,4,5,5,8,8],"right_children":[2,-1,4,-1,6,8,-1,-1,10,-1,-1],"split_conditions":[9.003977E0,-6.551414E-2,1.2003468E0,-6.497201E-2,2.0003451E-1,1.0498892E0,-6.608171E-2,-6.803477E-2,4.9809378E-2,-6.4287975E-2,4.1941907E-2],"split_indices":[6,0,2,0,7,1,0,0,4,0,0],"split_type":[0,0,0,0,0,0,0,0,0,0,0],"sum_hessian":[6.8744006E2,1.25662476E2,5.617776E2,5.6149567E1,5.0562805E2,4.6976422E2,3.586383E1,2.8341791E1,4.4142242E2,2.1545664E1,4.1987677E2],"tree_param":{"num_deleted":"0","num_feature":"9","num_nodes":"11","size_leaf_vector":"1"}},{"base_weights":[6.8881772E-3,-6.367453E-2,3.7424427E-1,-6.553863E-2,6.0026586E-1,-6.574709E-2,7.5658417E-1,9.0132487E-1,-6.47936E-2,-6.64328E-2,4.1575056E-2],"categories":[],"categories_nodes":[],"categories_segments":[],"categories_sizes":[],"default_left":[0,0,0,0,0,0,0,0,0,0,0],"id":9,"left_children":[1,-1,3,-1,5,-1,7,9,-1,-1,-1],"loss_changes":[3.9594247E2,0E0,2.5055203E2,0E0,1.746683E2,0E0,1.6081586E2,1.5654437E2,0E0,0E0,0E0],"parents":[2147483647,0,0,2,2,4,4,6,6,7,7],"right_children":[2,-1,4,-1,6,-1,8,10,-1,-1,-1],"split_conditions":[9.003977E0,-6.367453E-2,7.00002E1,-6.553863E-2,9.497231E-1,-6.574709E-2,2.0003451E-1,1.0498892E0,-6.47936E-2,-6.64328E-2,4.1575056E-2],"split_indices":[6,0,3,0,0,0,7,1,0,0,0],"split_type":[0,0,0,0,0,0,0,0,0,0,0],"sum_hessian":[6.7195154E2,1.24752106E2,5.471994E2,5.4443302E1,4.927561E2,3.1305746E1,4.6145038E2,4.3570016E2,2.5750214E1,2.156204E1,4.1413812E2],"tree_param":{"num_deleted":"0","num_feature":"9","num_nodes":"11","size_leaf_vector":"1"}},{"base_weights":[-8.533665E-4,-6.216751E-2,3.5320175E-1,-6.412201E-2,5.663212E-1,7.2644794E-1,-6.402076E-2,8.6738884E-1,-1.6526697E0,-6.617792E-2,4.025143E-2,-2.1276856E-2,-6.936773E-2],"categories":[],"categories_nodes":[],"categories_segments":[],"categories_sizes":[],"default_left":[0,0,0,0,0,0,0,0,0,0,0,0,0],"id":10,"left_children":[1,-1,3,-1,5,7,-1,9,11,-1,-1,-1,-1],"loss_changes":[3.6819458E2,0E0,2.2819885E2,0E0,1.7214828E2,1.556738E2,0E0,1.5412799E2,1.0478973E0,0E0,0E0,0E0,0E0],"parents":[2147483647,0,0,2,2,4,4,5,5,7,7,8,8],"right_children":[2,-1,4,-1,6,8,-1,10,12,-1,-1,-1,-1],"split_conditions":[9.003977E0,-6.216751E-2,7.00002E1,-6.412201E-2,5.033128E1,9.972182E-2,-6.402076E-2,9.497231E-1,1.00725584E-1,-6.617792E-2,4.025143E-2,-2.1276856E-2,-6.936773E-2],"split_indices":[6,0,3,0,8,5,0,0,5,0,0,0,0],"split_type":[0,0,0,0,0,0,0,0,0,0,0,0,0],"sum_hessian":[6.6686993E2,1.230837E2,5.4378625E2,5.260672E1,4.9117953E2,4.5816553E2,3.3014008E1,4.3330096E2,2.4864573E1,2.1898285E1,4.1140268E2,2.381477E0,2.2483095E1],"tree_param":{"num_deleted":"0","num_feature":"9","num_nodes":"13","size_leaf_vector":"1"}},{"base_weights":[4.328284E-3,-6.0866E-2,3.397949E-1,5.476164E-1,-6.123374E-2,-6.469292E-2,7.0688105E-1,8.522363E-1,-1.6072601E0,3.979012E-2,-6.456238E-2,-1.5087545E-2,-6.758152E-2],"categories":[],"categories_nodes":[],"categories_segments":[],"categories_sizes":[],"default_left":[0,0,0,0,0,0,0,0,0,0,0,0,0],"id":11,"left_children":[1,-1,3,5,-1,-1,7,9,11,-1,-1,-1,-1],"loss_changes":[3.4123947E2,0E0,2.134391E2,1.7125304E2,0E0,0E0,1.5631961E2,1.5430356E2,1.8183365E0,0E0,0E0,0E0,0E0],"parents":[2147483647,0,0,2,2,3,3,6,6,7,7,8,8],"right_children":[2,-1,4,6,-1,-1,8,10,12,-1,-1,-1,-1],"split_conditions":[9.003977E0,-6.0866E-2,5.033128E1,7.00002E1,-6.123374E-2,-6.469292E-2,9.972182E-2,2.0003451E-1,1.00725584E-1,3.979012E-2,-6.456238E-2,-1.5087545E-2,-6.758152E-2],"split_indices":[6,0,8,3,0,0,5,7,5,0,0,0,0],"split_type":[0,0,0,0,0,0,0,0,0,0,0,0,0],"sum_hessian":[6.6441315E2,1.18921074E2,5.4549207E2,4.9176126E2,5.373083E1,3.29018E1,4.5885947E2,4.32495E2,2.6364477E1,4.0958344E2,2.2911552E1,2.1492567E0,2.4215221E1],"tree_param":{"num_deleted":"0","num_feature":"9","num_nodes":"13","size_leaf_vector":"1"}},{"base_weights":[-1.4337328E-2,-6.001706E-2,3.2280326E-1,-6.2114052E-2,5.2111644E-1,-6.330682E-2,6.76165E-1,-6.422949E-2,8.2272613E-1,-6.696249E-2,3.819108E-2],"categories":[],"categories_nodes":[],"categories_segments":[],"categories_sizes":[],"default_left":[0,0,0,0,0,0,0,0,0,0,0],"id":12,"left_children":[1,-1,3,-1,5,-1,7,-1,9,-1,-1],"loss_changes":[3.2858762E2,0E0,1.9963159E2,0E0,1.5913742E2,0E0,1.5262556E2,0E0,1.4210922E2,0E0,0E0],"parents":[2147483647,0,0,2,2,4,4,6,6,8,8],"right_children":[2,-1,4,-1,6,-1,8,-1,10,-1,-1],"split_conditions":[1.2003468E0,-6.001706E-2,9.003977E0,-6.2114052E-2,9.497231E-1,-6.330682E-2,7.00002E1,-6.422949E-2,1.0498892E0,-6.696249E-2,3.819108E-2],"split_indices":[2,0,6,0,0,0,3,0,1,0,0],"split_type":[0,0,0,0,0,0,0,0,0,0,0],"sum_hessian":[6.5324084E2,1.2008255E2,5.331583E2,5.0148746E1,4.8300958E2,3.235153E1,4.5065805E2,2.6435617E1,4.2422244E2,2.0567457E1,4.0365497E2],"tree_param":{"num_deleted":"0","num_feature":"9","num_nodes":"11","size_leaf_vector":"1"}},{"base_weights":[-0E0,-5.883035E-2,3.1962106E-1,5.1003903E-1,-6.0185775E-2,-6.1633848E-2,6.63183E-1,7.9997814E-1,-1.5866231E0,3.76766E-2,-6.291074E-2,-2.133043E-2,-6.6419825E-2],"categories":[],"categories_nodes":[],"categories_segments":[],"categories_sizes":[],"default_left":[0,0,0,0,0,0,0,0,0,0,0,0,0],"id":13,"left_children":[1,-1,3,5,-1,-1,7,9,11,-1,-1,-1,-1],"loss_changes":[3.062305E2,0E0,1.8674971E2,1.5365555E2,0E0,0E0,1.4078139E2,1.4573233E2,7.6540375E-1,0E0,0E0,0E0,0E0],"parents":[2147483647,0,0,2,2,3,3,6,6,7,7,8,8],"right_children":[2,-1,4,6,-1,-1,8,10,12,-1,-1,-1,-1],"split_conditions":[1.2003468E0,-5.883035E-2,2.0003451E-1,7.00002E1,-6.0185775E-2,-6.1633848E-2,9.972182E-2,5.033128E1,1.00725584E-1,3.76766E-2,-6.291074E-2,-2.133043E-2,-6.6419825E-2],"split_indices":[2,0,7,3,0,0,5,8,5,0,0,0,0],"split_type":[0,0,0,0,0,0,0,0,0,0,0,0,0],"sum_hessian":[6.491315E2,1.1509047E2,5.34041E2,4.843985E2,4.964251E1,3.285684E1,4.5154166E2,4.264311E2,2.5110569E1,4.030845E2,2.3346598E1,2.380639E0,2.272993E1],"tree_param":{"num_deleted":"0","num_feature":"9","num_nodes":"13","size_leaf_vector":"1"}},{"base_weights":[-6.337535E-3,-5.7752542E-2,3.1936997E-1,-6.1272487E-2,5.1114684E-1,6.6287655E-1,-6.020357E-2,-6.12919E-2,7.99638E-1,-6.40406E-2,3.7162106E-2],"categories":[],"categories_nodes":[],"categories_segments":[],"categories_sizes":[],"default_left":[0,0,0,0,0,0,0,0,0,0,0],"id":14,"left_children":[1,-1,3,-1,5,7,-1,-1,9,-1,-1],"loss_changes":[3.005001E2,0E0,1.8651999E2,0E0,1.4638959E2,1.342493E2,0E0,0E0,1.3139612E2,0E0,0E0],"parents":[2147483647,0,0,2,2,4,4,5,5,8,8],"right_children":[2,-1,4,-1,6,8,-1,-1,10,-1,-1],"split_conditions":[4.9809378E-2,-5.7752542E-2,9.003977E0,-6.1272487E-2,5.033128E1,7.00002E1,-6.020357E-2,-6.12919E-2,9.497231E-1,-6.40406E-2,3.7162106E-2],"split_indices":[4,0,6,0,8,3,0,0,0,0,0],"split_type":[0,0,0,0,0,0,0,0,0,0,0],"sum_hessian":[6.3920245E2,1.1737366E2,5.218288E2,4.81491E1,4.736797E2,4.4132343E2,3.2356255E1,2.5121355E1,4.1620206E2,2.0551527E1,3.9565054E2],"tree_param":{"num_deleted":"0","num_feature":"9","num_nodes":"11","size_leaf_vector":"1"}},{"base_weights":[-4.979779E-3,-5.6744557E-2,3.0373418E-1,4.8434794E-1,-1.4683414E0,-6.389265E-2,6.2306803E-1,-1.8568482E-2,-6.0190324E-2,-6.612558E-2,7.5090265E-1,3.5586927E-2,-6.259974E-2],"categories":[],"categories_nodes":[],"categories_segments":[],"categories_sizes":[],"default_left":[0,0,0,0,0,0,0,0,0,0,0,0,0],"id":15,"left_children":[1,-1,3,5,7,-1,9,-1,-1,-1,11,-1,-1],"loss_changes":[2.7974878E2,0E0,1.6906741E2,1.3918266E2,7.5253296E-1,0E0,1.3211304E2,0E0,0E0,0E0,1.3857497E2,0E0,0E0],"parents":[2147483647,0,0,2,2,3,3,4,4,6,6,10,10],"right_children":[2,-1,4,6,8,-1,10,-1,-1,-1,12,-1,-1],"split_conditions":[4.9809378E-2,-5.6744557E-2,9.972182E-2,1.2003468E0,1.00725584E-1,-6.389265E-2,1.0498892E0,-1.8568482E-2,-6.0190324E-2,-6.612558E-2,2.0003451E-1,3.5586927E-2,-6.259974E-2],"split_indices":[4,0,5,2,5,0,1,0,0,0,7,0,0],"split_type":[0,0,0,0,0,0,0,0,0,0,0,0,0],"sum_hessian":[6.383846E2,1.1370892E2,5.2467566E2,4.769884E2,4.7687237E1,2.896686E1,4.4802155E2,2.3423948E0,4.534484E1,2.3020525E1,4.25001E2,4.0171225E2,2.3288757E1],"tree_param":{"num_deleted":"0","num_feature":"9","num_nodes":"13","size_leaf_vector":"1"}},{"base_weights":[6.123903E-3,-5.625018E-2,3.1102836E-1,-5.9178684E-2,4.9548706E-1,-6.1303914E-2,6.407692E-1,-6.413823E-2,7.787945E-1,3.6655135E-2,-6.0860023E-2],"categories":[],"categories_nodes":[],"categories_segments":[],"categories_sizes":[],"default_left":[0,0,0,0,0,0,0,0,0,0,0],"id":16,"left_children":[1,-1,3,-1,5,-1,7,-1,9,-1,-1],"loss_changes":[2.6645422E2,0E0,1.6893271E2,0E0,1.3737027E2,0E0,1.3538748E2,0E0,1.3083023E2,0E0,0E0],"parents":[2147483647,0,0,2,2,4,4,6,6,8,8],"right_children":[2,-1,4,-1,6,-1,8,-1,10,-1,-1],"split_conditions":[1.0498892E0,-5.625018E-2,9.003977E0,-5.9178684E-2,9.497231E-1,-6.1303914E-2,1.2003468E0,-6.413823E-2,2.0003451E-1,3.6655135E-2,-6.0860023E-2],"split_indices":[1,0,6,0,0,0,2,0,7,0,0],"split_type":[0,0,0,0,0,0,0,0,0,0,0],"sum_hessian":[6.165749E2,1.08645355E2,5.079295E2,4.66026E1,4.613269E2,3.0026114E1,4.313008E2,2.4209011E1,4.070918E2,3.8483942E2,2.2252363E1],"tree_param":{"num_deleted":"0","num_feature":"9","num_nodes":"11","size_leaf_vector":"1"}},{"base_weights":[-9.915985E-3,-5.5291645E-2,2.9335725E-1,-5.8597915E-2,4.6894675E-1,-6.0260944E-2,6.05761E-1,-6.0790624E-2,7.3671883E-1,3.4759227E-2,-5.9821695E-2],"categories":[],"categories_nodes":[],"categories_segments":[],"categories_sizes":[],"default_left":[0,0,0,0,0,0,0,0,0,0,0],"id":17,"left_children":[1,-1,3,-1,5,-1,7,-1,9,-1,-1],"loss_changes":[2.5551697E2,0E0,1.5588733E2,0E0,1.24761986E2,0E0,1.2071872E2,0E0,1.2109639E2,0E0,0E0],"parents":[2147483647,0,0,2,2,4,4,6,6,8,8],"right_children":[2,-1,4,-1,6,-1,8,-1,10,-1,-1],"split_conditions":[4.9809378E-2,-5.5291645E-2,9.003977E0,-5.8597915E-2,1.2003468E0,-6.0260944E-2,9.497231E-1,-6.0790624E-2,2.0003451E-1,3.4759227E-2,-5.9821695E-2],"split_indices":[4,0,6,0,2,0,0,0,7,0,0],"split_type":[0,0,0,0,0,0,0,0,0,0,0],"sum_hessian":[6.112907E2,1.09923584E2,5.013671E2,4.4670254E1,4.5669687E2,2.875512E1,4.2794174E2,2.4053236E1,4.038885E2,3.8203076E2,2.1857727E1],"tree_param":{"num_deleted":"0","num_feature":"9","num_nodes":"11","size_leaf_vector":"1"}},{"base_weights":[-6.7045405E-3,2.7803573E-1,-5.467395E-2,4.5592564E-1,-1.4181838E0,-5.9740614E-2,5.9552026E-1,-1.4462041E-2,-5.8602735E-2,-6.362915E-2,7.232535E-1,-6.1412837E-2,3.4158226E-2],"categories":[],"categories_nodes":[],"categories_segments":[],"categories_sizes":[],"default_left":[0,0,0,0,0,0,0,0,0,0,0,0,0],"id":18,"left_children":[1,3,-1,5,7,-1,9,-1,-1,-1,11,-1,-1],"loss_changes":[2.373723E2,1.5352353E2,0E0,1.2600056E2,1.5754242E0,0E0,1.2127028E2,0E0,0E0,0E0,1.21586914E2,0E0,0E0],"parents":[2147483647,0,0,1,1,3,3,4,4,6,6,10,10],"right_children":[2,4,-1,6,8,-1,10,-1,-1,-1,12,-1,-1],"split_conditions":[5.033128E1,9.972182E-2,-5.467395E-2,7.00002E1,1.00725584E-1,-5.9740614E-2,1.0498892E0,-1.4462041E-2,-5.8602735E-2,-6.362915E-2,9.003977E0,-6.1412837E-2,3.4158226E-2],"split_indices":[8,5,0,3,5,0,1,0,0,0,6,0,0],"split_type":[0,0,0,0,0,0,0,0,0,0,0,0,0],"sum_hessian":[6.102506E2,5.053409E2,1.0490973E2,4.5822162E2,4.7119286E1,2.9793917E1,4.284277E2,2.536702E0,4.458258E1,2.2847572E1,4.055801E2,2.1439405E1,3.8414072E2],"tree_param":{"num_deleted":"0","num_feature":"9","num_nodes":"13","size_leaf_vector":"1"}},{"base_weights":[-1.7984243E-2,2.612148E-1,-5.4053433E-2,4.3314716E-1,-5.639141E-2,-5.8823656E-2,5.758008E-1,-6.055523E-2,7.123085E-1,-6.1920237E-2,3.3750806E-2],"categories":[],"categories_nodes":[],"categories_segments":[],"categories_sizes":[],"default_left":[0,0,0,0,0,0,0,0,0,0,0],"id":19,"left_children":[1,3,-1,5,-1,-1,7,-1,9,-1,-1],"loss_changes":[2.2280022E2,1.4274107E2,0E0,1.2298735E2,0E0,0E0,1.2074664E2,0E0,1.1863158E2,0E0,0E0],"parents":[2147483647,0,0,1,1,3,3,6,6,8,8],"right_children":[2,4,-1,6,-1,-1,8,-1,10,-1,-1],"split_conditions":[9.972182E-2,5.033128E1,-5.4053433E-2,7.00002E1,-5.639141E-2,-5.8823656E-2,9.497231E-1,-6.055523E-2,9.003977E0,-6.1920237E-2,3.3750806E-2],"split_indices":[5,8,0,3,0,0,0,0,6,0,0],"split_type":[0,0,0,0,0,0,0,0,0,0,0],"sum_hessian":[5.958595E2,4.9342746E2,1.0243203E2,4.482545E2,4.5172966E1,3.0420176E1,4.1783432E2,2.4833813E1,3.9300052E2,2.084838E1,3.7215213E2],"tree_param":{"num_deleted":"0","num_feature":"9","num_nodes":"11","size_leaf_vector":"1"}},{"base_weights":[-2.0948656E-2,-5.379461E-2,2.5024953E-1,4.1944885E-1,-5.5576008E-2,5.6004506E-1,-1.4218233E0,6.8635035E-1,-5.936555E-2,-1.2498984E-2,-6.0100097E-2,-5.920165E-2,3.2804903E-2],"categories":[],"categories_nodes":[],"categories_segments":[],"categories_sizes":[],"default_left":[0,0,0,0,0,0,0,0,0,0,0,0,0],"id":20,"left_children":[1,-1,3,5,-1,7,9,11,-1,-1,-1,-1,-1],"loss_changes":[2.1253221E2,0E0,1.368364E2,1.1635511E2,0E0,1.0838722E2,2.1134186E0,1.1501201E2,0E0,0E0,0E0,0E0,0E0],"parents":[2147483647,0,0,2,2,3,3,5,5,6,6,7,7],"right_children":[2,-1,4,6,-1,8,10,12,-1,-1,-1,-1,-1],"split_conditions":[4.9809378E-2,-5.379461E-2,5.033128E1,9.972182E-2,-5.5576008E-2,2.0003451E-1,1.00725584E-1,7.00002E1,-5.936555E-2,-1.2498984E-2,-6.0100097E-2,-5.920165E-2,3.2804903E-2],"split_indices":[4,0,8,5,0,7,5,3,0,0,0,0,0],"split_type":[0,0,0,0,0,0,0,0,0,0,0,0,0],"sum_hessian":[5.893098E2,9.9448235E1,4.898616E2,4.4490482E2,4.495677E1,4.1416895E2,3.073587E1,3.9086438E2,2.3304575E1,2.5642507E0,2.817162E1,2.1985945E1,3.6887842E2],"tree_param":{"num_deleted":"0","num_feature":"9","num_nodes":"13","size_leaf_vector":"1"}},{"base_weights":[-1.18942335E-2,-5.3350255E-2,2.5851917E-1,4.2405227E-1,-1.3776168E0,-6.057124E-2,5.559583E-1,-5.658792E-2,-2.3000214E-2,6.854866E-1,-5.7617128E-2,-5.974007E-2,3.2475077E-2],"categories":[],"categories_nodes":[],"categories_segments":[],"categories_sizes":[],"default_left":[0,0,0,0,0,0,0,0,0,0,0,0,0],"id":21,"left_children":[1,-1,3,5,7,-1,9,-1,-1,11,-1,-1,-1],"loss_changes":[2.0927525E2,0E0,1.3216928E2,1.1395279E2,1.5995026E-1,0E0,1.0838985E2,0E0,0E0,1.0891855E2,0E0,0E0,0E0],"parents":[2147483647,0,0,2,2,3,3,4,4,6,6,9,9],"right_children":[2,-1,4,6,8,-1,10,-1,-1,12,-1,-1,-1],"split_conditions":[4.9809378E-2,-5.3350255E-2,9.972182E-2,1.2003468E0,1.0924149E2,-6.057124E-2,5.033128E1,-5.658792E-2,-2.3000214E-2,9.003977E0,-5.7617128E-2,-5.974007E-2,3.2475077E-2],"split_indices":[4,0,5,2,3,0,8,0,0,6,0,0,0],"split_type":[0,0,0,0,0,0,0,0,0,0,0,0,0],"sum_hessian":[5.8281E2,9.823904E1,4.8457098E2,4.4091254E2,4.365843E1,2.7243305E1,4.1366925E2,4.073663E1,2.9218001E0,3.8925208E2,2.4417166E1,2.0585402E1,3.686667E2],"tree_param":{"num_deleted":"0","num_feature":"9","num_nodes":"13","size_leaf_vector":"1"}},{"base_weights":[-1.8317584E-2,-5.3689796E-2,2.3867424E-1,-5.590363E-2,4.0277103E-1,-5.701548E-2,5.4132366E-1,-6.1002187E-2,6.6551507E-1,3.2094818E-2,-5.8871455E-2],"categories":[],"categories_nodes":[],"categories_segments":[],"categories_sizes":[],"default_left":[0,0,0,0,0,0,0,0,0,0,0],"id":22,"left_children":[1,-1,3,-1,5,-1,7,-1,9,-1,-1],"loss_changes":[1.9790623E2,0E0,1.3129854E2,0E0,1.13165184E2,0E0,1.0715537E2,0E0,1.1560149E2,0E0,0E0],"parents":[2147483647,0,0,2,2,4,4,6,6,8,8],"right_children":[2,-1,4,-1,6,-1,8,-1,10,-1,-1],"split_conditions":[1.0498892E0,-5.3689796E-2,9.497231E-1,-5.590363E-2,7.00002E1,-5.701548E-2,1.2003468E0,-6.1002187E-2,2.0003451E-1,3.2094818E-2,-5.8871455E-2],"split_indices":[1,0,0,0,3,0,2,0,7,0,0],"split_type":[0,0,0,0,0,0,0,0,0,0,0],"sum_hessian":[5.790149E2,9.336327E1,4.8565164E2,4.3387775E1,4.4226385E2,3.0320995E1,4.1194287E2,2.2541496E1,3.8940137E2,3.6671616E2,2.2685217E1],"tree_param":{"num_deleted":"0","num_feature":"9","num_nodes":"11","size_leaf_vector":"1"}},{"base_weights":[-0E0,-5.2469477E-2,2.6471797E-1,-5.6933746E-2,4.1645193E-1,-5.7283953E-2,5.4669243E-1,-5.9217647E-2,6.692358E-1,3.2203645E-2,-5.734531E-2],"categories":[],"categories_nodes":[],"categories_segments":[],"categories_sizes":[],"default_left":[0,0,0,0,0,0,0,0,0,0,0],"id":23,"left_children":[1,-1,3,-1,5,-1,7,-1,9,-1,-1],"loss_changes":[1.9803238E2,0E0,1.2217992E2,0E0,1.0593286E2,0E0,1.0262313E2,0E0,1.1166403E2,0E0,0E0],"parents":[2147483647,0,0,2,2,4,4,6,6,8,8],"right_children":[2,-1,4,-1,6,-1,8,-1,10,-1,-1],"split_conditions":[4.9809378E-2,-5.2469477E-2,1.0498892E0,-5.6933746E-2,9.497231E-1,-5.7283953E-2,1.2003468E0,-5.9217647E-2,2.0003451E-1,3.2203645E-2,-5.734531E-2],"split_indices":[4,0,1,0,0,0,2,0,7,0,0],"split_type":[0,0,0,0,0,0,0,0,0,0,0],"sum_hessian":[5.6798895E2,9.4561615E1,4.7342734E2,3.816135E1,4.35266E2,2.7808409E1,4.0745758E2,2.2422787E1,3.850348E2,3.6240955E2,2.2625248E1],"tree_param":{"num_deleted":"0","num_feature":"9","num_nodes":"11","size_leaf_vector":"1"}},{"base_weights":[-1.7258132E-2,-5.179023E-2,2.3980264E-1,-5.4817047E-2,3.9394024E-1,-5.620314E-2,5.2883536E-1,-5.80495E-2,6.565853E-1,-5.9039406E-2,3.1528898E-2],"categories":[],"categories_nodes":[],"categories_segments":[],"categories_sizes":[],"default_left":[0,0,0,0,0,0,0,0,0,0,0],"id":24,"left_children":[1,-1,3,-1,5,-1,7,-1,9,-1,-1],"loss_changes":[1.8403401E2,0E0,1.16275566E2,0E0,1.04311325E2,0E0,1.0166199E2,0E0,1.0644862E2,0E0,0E0],"parents":[2147483647,0,0,2,2,4,4,6,6,8,8],"right_children":[2,-1,4,-1,6,-1,8,-1,10,-1,-1],"split_conditions":[4.9809378E-2,-5.179023E-2,9.003977E0,-5.4817047E-2,7.00002E1,-5.620314E-2,9.497231E-1,-5.80495E-2,1.2003468E0,-5.9039406E-2,3.1528898E-2],"split_indices":[4,0,6,0,3,0,0,0,2,0,0],"split_type":[0,0,0,0,0,0,0,0,0,0,0],"sum_hessian":[5.577494E2,9.268481E1,4.6506454E2,3.97448E1,4.2531976E2,2.8827202E1,3.9649255E2,2.3229523E1,3.7326303E2,2.094422E1,3.5231882E2],"tree_param":{"num_deleted":"0","num_feature":"9","num_nodes":"11","size_leaf_vector":"1"}},{"base_weights":[-2.2483487E-2,-5.20055E-2,2.181071E-1,3.6919582E-1,-1.3450556E0,4.9817404E-1,-5.6400113E-2,-1.8311469E-2,-5.568499E-2,-5.632634E-2,6.2430686E-1,3.0106349E-2,-5.7151224E-2],"categories":[],"categories_nodes":[],"categories_segments":[],"categories_sizes":[],"default_left":[0,0,0,0,0,0,0,0,0,0,0,0,0],"id":25,"left_children":[1,-1,3,5,7,9,-1,-1,-1,-1,11,-1,-1],"loss_changes":[1.695377E2,0E0,1.1005353E2,9.804724E1,7.6605225E-1,9.625945E1,0E0,0E0,0E0,0E0,9.93979E1,0E0,0E0],"parents":[2147483647,0,0,2,2,3,3,4,4,5,5,10,10],"right_children":[2,-1,4,6,8,10,-1,-1,-1,-1,12,-1,-1],"split_conditions":[1.0498892E0,-5.20055E-2,9.972182E-2,5.033128E1,1.00725584E-1,7.00002E1,-5.6400113E-2,-1.8311469E-2,-5.568499E-2,-5.632634E-2,2.0003451E-1,3.0106349E-2,-5.7151224E-2],"split_indices":[1,0,5,8,5,3,0,0,0,0,7,0,0],"split_type":[0,0,0,0,0,0,0,0,0,0,0,0,0],"sum_hessian":[5.488776E2,8.6207016E1,4.6267062E2,4.227864E2,3.98842E1,3.9506726E2,2.7719135E1,2.76468E0,3.7119522E1,2.3711353E1,3.7135593E2,3.502672E2,2.1088697E1],"tree_param":{"num_deleted":"0","num_feature":"9","num_nodes":"13","size_leaf_vector":"1"}},{"base_weights":[-8.007172E-3,2.293512E-1,-5.076123E-2,-5.4054398E-2,3.84272E-1,5.1155055E-1,-1.3586966E0,6.3231635E-1,-5.5936337E-2,-1.2492244E-2,-5.7677727E-2,-6.1013326E-2,3.0108495E-2],"categories":[],"categories_nodes":[],"categories_segments":[],"categories_sizes":[],"default_left":[0,0,0,0,0,0,0,0,0,0,0,0,0],"id":26,"left_children":[1,3,-1,-1,5,7,9,11,-1,-1,-1,-1,-1],"loss_changes":[1.6261342E2,1.1241431E2,0E0,0E0,9.3281845E1,9.085986E1,1.7807808E0,9.67283E1,0E0,0E0,0E0,0E0,0E0],"parents":[2147483647,0,0,1,1,4,4,5,5,6,6,7,7],"right_children":[2,4,-1,-1,6,8,10,12,-1,-1,-1,-1,-1],"split_conditions":[5.033128E1,9.003977E0,-5.076123E-2,-5.4054398E-2,9.972182E-2,2.0003451E-1,1.00725584E-1,1.0498892E0,-5.5936337E-2,-1.2492244E-2,-5.7677727E-2,-6.1013326E-2,3.0108495E-2],"split_indices":[8,6,0,0,5,7,5,1,0,0,0,0,0],"split_type":[0,0,0,0,0,0,0,0,0,0,0,0,0],"sum_hessian":[5.405719E2,4.556995E2,8.487239E1,3.979047E1,4.1590903E2,3.8844818E2,2.7460855E1,3.6615164E2,2.229652E1,2.532391E0,2.4928465E1,1.8567347E1,3.4758432E2],"tree_param":{"num_deleted":"0","num_feature":"9","num_nodes":"13","size_leaf_vector":"1"}},{"base_weights":[-3.0863581E-2,-5.104014E-2,2.0419466E-1,-5.379027E-2,3.5356432E-1,4.861042E-1,-5.327907E-2,-5.7957314E-2,6.052494E-1,2.9162204E-2,-5.716987E-2],"categories":[],"categories_nodes":[],"categories_segments":[],"categories_sizes":[],"default_left":[0,0,0,0,0,0,0,0,0,0,0],"id":27,"left_children":[1,-1,3,-1,5,7,-1,-1,9,-1,-1],"loss_changes":[1.5761855E2,0E0,1.0522823E2,0E0,9.317196E1,8.966476E1,0E0,0E0,9.26888E1,0E0,0E0],"parents":[2147483647,0,0,2,2,4,4,5,5,8,8],"right_children":[2,-1,4,-1,6,8,-1,-1,10,-1,-1],"split_conditions":[4.9809378E-2,-5.104014E-2,9.003977E0,-5.379027E-2,4.9939285E1,1.2003468E0,-5.327907E-2,-5.7957314E-2,9.972182E-2,2.9162204E-2,-5.716987E-2],"split_indices":[4,0,6,0,8,2,0,0,5,0,0],"split_type":[0,0,0,0,0,0,0,0,0,0,0],"sum_hessian":[5.359002E2,8.432562E1,4.5157462E2,3.8813084E1,4.1276154E2,3.835175E2,2.9244041E1,2.1419E1,3.6209848E2,3.4209973E2,1.999874E1],"tree_param":{"num_deleted":"0","num_feature":"9","num_nodes":"11","size_leaf_vector":"1"}},{"base_weights":[-3.4272395E-2,-5.041863E-2,1.9692932E-1,-5.3605255E-2,3.386336E-1,-5.6787174E-2,4.630831E-1,-5.6698844E-2,5.8952785E-1,2.9028734E-2,-5.5384472E-2],"categories":[],"categories_nodes":[],"categories_segments":[],"categories_sizes":[],"default_left":[0,0,0,0,0,0,0,0,0,0,0],"id":28,"left_children":[1,-1,3,-1,5,-1,7,-1,9,-1,-1],"loss_changes":[1.4949522E2,0E0,9.702891E1,0E0,8.975905E1,0E0,9.153535E1,0E0,9.73829E1,0E0,0E0],"parents":[2147483647,0,0,2,2,4,4,6,6,8,8],"right_children":[2,-1,4,-1,6,-1,8,-1,10,-1,-1],"split_conditions":[4.9809378E-2,-5.041863E-2,7.00002E1,-5.3605255E-2,9.497231E-1,-5.6787174E-2,1.2003468E0,-5.6698844E-2,2.0003451E-1,2.9028734E-2,-5.5384472E-2],"split_indices":[4,0,3,0,0,0,2,0,7,0,0],"split_type":[0,0,0,0,0,0,0,0,0,0,0],"sum_hessian":[5.2469794E2,8.245942E1,4.422385E2,3.641306E1,4.0582544E2,2.594618E1,3.7987927E2,2.311137E1,3.5676788E2,3.3450107E2,2.226681E1],"tree_param":{"num_deleted":"0","num_feature":"9","num_nodes":"11","size_leaf_vector":"1"}},{"base_weights":[-1.74971E-2,-4.984515E-2,2.0760483E-1,-5.3037193E-2,3.5470766E-1,-5.828591E-2,4.7596818E-1,5.9705573E-1,-1.3501958E0,-5.774136E-2,2.876722E-2,-5.6602962E-2,-1.783089E-2],"categories":[],"categories_nodes":[],"categories_segments":[],"categories_sizes":[],"default_left":[0,0,0,0,0,0,0,0,0,0,0,0,0],"id":29,"left_children":[1,-1,3,-1,5,-1,7,9,11,-1,-1,-1,-1],"loss_changes":[1.4432878E2,0E0,9.989371E1,0E0,8.9314026E1,0E0,8.466326E1,8.993209E1,4.5783997E-1,0E0,0E0,0E0,0E0],"parents":[2147483647,0,0,2,2,4,4,6,6,7,7,8,8],"right_children":[2,-1,4,-1,6,-1,8,10,12,-1,-1,-1,-1],"split_conditions":[4.9809378E-2,-4.984515E-2,9.003977E0,-5.3037193E-2,1.0498892E0,-5.828591E-2,4.9939285E1,9.497231E-1,1.2094653E0,-5.774136E-2,2.876722E-2,-5.6602962E-2,-1.783089E-2],"split_indices":[4,0,6,0,1,0,8,0,0,0,0,0,0],"split_type":[0,0,0,0,0,0,0,0,0,0,0,0,0],"sum_hessian":[5.191596E2,7.961472E1,4.395449E2,3.757128E1,4.0197363E2,2.433401E1,3.7763962E2,3.5496533E2,2.2674284E1,1.9264847E1,3.3570047E2,2.0421272E1,2.2530122E0],"tree_param":{"num_deleted":"0","num_feature":"9","num_nodes":"13","size_leaf_vector":"1"}},{"base_weights":[-2.424661E-2,-4.944694E-2,1.8778807E-1,-5.2097447E-2,3.2946736E-1,-5.4696638E-2,4.5334595E-1,-5.838531E-2,5.7305866E-1,2.8284766E-2,-5.5083666E-2],"categories":[],"categories_nodes":[],"categories_segments":[],"categories_sizes":[],"default_left":[0,0,0,0,0,0,0,0,0,0,0],"id":30,"left_children":[1,-1,3,-1,5,-1,7,-1,9,-1,-1],"loss_changes":[1.3135867E2,0E0,9.221152E1,0E0,8.432338E1,0E0,8.608638E1,0E0,9.284584E1,0E0,0E0],"parents":[2147483647,0,0,2,2,4,4,6,6,8,8],"right_children":[2,-1,4,-1,6,-1,8,-1,10,-1,-1],"split_conditions":[1.2003468E0,-4.944694E-2,9.003977E0,-5.2097447E-2,9.497231E-1,-5.4696638E-2,1.0498892E0,-5.838531E-2,2.0003451E-1,2.8284766E-2,-5.5083666E-2],"split_indices":[2,0,6,0,0,0,1,0,7,0,0],"split_type":[0,0,0,0,0,0,0,0,0,0,0],"sum_hessian":[5.0848987E2,7.492374E1,4.3356613E2,3.67267E1,3.9683945E2,2.6125143E1,3.707143E2,2.0992517E1,3.4972177E2,3.2799066E2,2.1731117E1],"tree_param":{"num_deleted":"0","num_feature":"9","num_nodes":"11","size_leaf_vector":"1"}},{"base_weights":[-2.282722E-2,1.8847474E-1,-1.2313277E0,3.2668254E-1,-5.201848E-2,-1.8915027E-2,-5.008477E-2,-5.5207662E-2,4.4654605E-1,-1.36046E0,5.693582E-1,-1.9702302E-2,-5.6413963E-2,-5.875889E-2,2.755425E-2],"categories":[],"categories_nodes":[],"categories_segments":[],"categories_sizes":[],"default_left":[0,0,0,0,0,0,0,0,0,0,0,0,0,0,0],"id":31,"left_children":[1,3,5,7,-1,-1,-1,-1,9,11,13,-1,-1,-1,-1],"loss_changes":[1.295524E2,8.921294E1,3.0775452E-1,8.1642715E1,0E0,0E0,0E0,0E0,8.315634E1,1.1138916E-2,8.594296E1,0E0,0E0,0E0,0E0],"parents":[2147483647,0,0,1,1,2,2,3,3,8,8,9,9,10,10],"right_children":[2,4,6,8,-1,-1,-1,-1,10,12,14,-1,-1,-1,-1],"split_conditions":[9.972182E-2,5.033128E1,1.00725584E-1,7.00002E1,-5.201848E-2,-1.8915027E-2,-5.008477E-2,-5.5207662E-2,9.003977E0,3.47628E1,1.0498892E0,-1.9702302E-2,-5.6413963E-2,-5.875889E-2,2.755425E-2],"split_indices":[5,8,5,3,0,0,0,0,6,8,1,0,0,0,0],"split_type":[0,0,0,0,0,0,0,0,0,0,0,0,0,0,0],"sum_hessian":[5.046364E2,4.3032562E2,7.431078E1,3.9469287E2,3.5632763E1,2.8713007E0,7.143948E1,2.5015568E1,3.696773E2,2.2704569E1,3.4697272E2,2.052368E0,2.06522E1,1.841814E1,3.285546E2],"tree_param":{"num_deleted":"0","num_feature":"9","num_nodes":"15","size_leaf_vector":"1"}},{"base_weights":[-1.2545149E-2,-4.9294617E-2,1.9211455E-1,3.2405722E-1,-5.1115464E-2,4.4185156E-1,-5.3700633E-2,-1.3299735E0,5.624052E-1,-2.0040005E-2,-5.5332236E-2,-5.6195926E-2,2.7425371E-2],"categories":[],"categories_nodes":[],"categories_segments":[],"categories_sizes":[],"default_left":[0,0,0,0,0,0,0,0,0,0,0,0,0],"id":32,"left_children":[1,-1,3,5,-1,7,-1,9,11,-1,-1,-1,-1],"loss_changes":[1.2340265E2,0E0,8.243024E1,7.700912E1,0E0,7.8652916E1,0E0,1.9626617E-2,8.401055E1,0E0,0E0,0E0,0E0],"parents":[2147483647,0,0,2,2,3,3,5,5,7,7,8,8],"right_children":[2,-1,4,6,-1,8,-1,10,12,-1,-1,-1,-1],"split_conditions":[4.9809378E-2,-4.9294617E-2,5.033128E1,2.0003451E-1,-5.1115464E-2,9.003977E0,-5.3700633E-2,1.7713682E-1,9.497231E-1,-2.0040005E-2,-5.5332236E-2,-5.6195926E-2,2.7425371E-2],"split_indices":[4,0,8,7,0,6,0,4,0,0,0,0,0],"split_type":[0,0,0,0,0,0,0,0,0,0,0,0,0],"sum_hessian":[4.9155176E2,6.982729E1,4.2172446E2,3.8791034E2,3.381412E1,3.6318228E2,2.4728071E1,2.231671E1,3.4086557E2,2.216243E0,2.0100466E1,1.930921E1,3.2155634E2],"tree_param":{"num_deleted":"0","num_feature":"9","num_nodes":"13","size_leaf_vector":"1"}},{"base_weights":[-1.55190965E-2,1.9111112E-1,-1.2216572E0,-5.3301003E-2,3.2038367E-1,-1.397948E-2,-4.9888212E-2,-5.4690387E-2,4.3810973E-1,5.5629146E-1,-5.3244233E-2,-5.4546393E-2,2.7115336E-2],"categories":[],"categories_nodes":[],"categories_segments":[],"categories_sizes":[],"default_left":[0,0,0,0,0,0,0,0,0,0,0,0,0],"id":33,"left_children":[1,3,5,-1,7,-1,-1,-1,9,11,-1,-1,-1],"loss_changes":[1.2237047E2,8.290863E1,9.1763306E-1,0E0,7.753783E1,0E0,0E0,0E0,7.667618E1,8.065111E1,0E0,0E0,0E0],"parents":[2147483647,0,0,1,1,2,2,4,4,8,8,9,9],"right_children":[2,4,6,-1,8,-1,-1,-1,10,12,-1,-1,-1],"split_conditions":[9.972182E-2,1.2003468E0,1.00725584E-1,-5.3301003E-2,7.00002E1,-1.397948E-2,-4.9888212E-2,-5.4690387E-2,2.0003451E-1,9.497231E-1,-5.3244233E-2,-5.4546393E-2,2.7115336E-2],"split_indices":[5,2,5,0,3,0,0,0,7,0,0,0,0],"split_type":[0,0,0,0,0,0,0,0,0,0,0,0,0],"sum_hessian":[4.8826715E2,4.1764502E2,7.062214E1,3.1729597E1,3.8591544E2,2.622557E0,6.799958E1,2.4279165E1,3.6163626E2,3.398161E2,2.1820156E1,1.945999E1,3.203561E2],"tree_param":{"num_deleted":"0","num_feature":"9","num_nodes":"13","size_leaf_vector":"1"}},{"base_weights":[-3.7247736E-3,-4.8855294E-2,2.0494659E-1,3.4332815E-1,-1.2778351E0,4.625221E-1,-5.26109E-2,-1.2581138E-2,-5.3491533E-2,-5.4002665E-2,5.743945E-1,-5.3229365E-2,2.7841635E-2],"categories":[],"categories_nodes":[],"categories_segments":[],"categories_sizes":[],"default_left":[0,0,0,0,0,0,0,0,0,0,0,0,0],"id":34,"left_children":[1,-1,3,5,7,9,-1,-1,-1,-1,11,-1,-1],"loss_changes":[1.2216769E2,0E0,8.4575005E1,7.4992676E1,1.3458023E0,7.219127E1,0E0,0E0,0E0,0E0,7.804678E1,0E0,0E0],"parents":[2147483647,0,0,2,2,3,3,4,4,5,5,10,10],"right_children":[2,-1,4,6,8,10,-1,-1,-1,-1,12,-1,-1],"split_conditions":[4.9809378E-2,-4.8855294E-2,9.972182E-2,5.033128E1,1.00725584E-1,9.497231E-1,-5.26109E-2,-1.2581138E-2,-5.3491533E-2,-5.4002665E-2,9.003977E0,-5.3229365E-2,2.7841635E-2],"split_indices":[4,0,5,8,5,0,0,0,0,0,6,0,0],"split_type":[0,0,0,0,0,0,0,0,0,0,0,0,0],"sum_hessian":[4.7802197E2,6.915252E1,4.0886945E2,3.7487372E2,3.399574E1,3.5060355E2,2.427017E1,2.5127473E0,3.1482992E1,1.9557182E1,3.3104636E2,1.9104082E1,3.1194226E2],"tree_param":{"num_deleted":"0","num_feature":"9","num_nodes":"13","size_leaf_vector":"1"}},{"base_weights":[-1.3228772E-2,-4.8595164E-2,1.8922293E-1,3.1987336E-1,-4.911982E-2,4.342474E-1,-1.294377E0,-5.3207263E-2,5.478952E-1,-1.7527936E-2,-5.491567E-2,-5.550516E-2,2.6594523E-2],"categories":[],"categories_nodes":[],"categories_segments":[],"categories_sizes":[],"default_left":[0,0,0,0,0,0,0,0,0,0,0,0,0],"id":35,"left_children":[1,-1,3,5,-1,7,9,-1,11,-1,-1,-1,-1],"loss_changes":[1.1530282E2,0E0,7.541787E1,6.928252E1,0E0,7.065974E1,7.682152E-1,0E0,7.534317E1,0E0,0E0,0E0,0E0],"parents":[2147483647,0,0,2,2,3,3,5,5,6,6,8,8],"right_children":[2,-1,4,6,-1,8,10,-1,12,-1,-1,-1,-1],"split_conditions":[4.9809378E-2,-4.8595164E-2,4.9939285E1,9.972182E-2,-4.911982E-2,9.497231E-1,1.00725584E-1,-5.3207263E-2,1.2003468E0,-1.7527936E-2,-5.491567E-2,-5.550516E-2,2.6594523E-2],"split_indices":[4,0,8,5,0,0,5,0,2,0,0,0,0],"split_type":[0,0,0,0,0,0,0,0,0,0,0,0,0],"sum_hessian":[4.71203E2,6.714678E1,4.0405624E2,3.7086652E2,3.31897E1,3.4720523E2,2.3661303E1,2.0179821E1,3.2702542E2,2.757931E0,2.0903372E1,1.7844984E1,3.0918042E2],"tree_param":{"num_deleted":"0","num_feature":"9","num_nodes":"13","size_leaf_vector":"1"}},{"base_weights":[-2.195083E-2,-4.884805E-2,1.7408465E-1,-5.1112264E-2,3.0246535E-1,4.190312E-1,-1.221737E0,5.310182E-1,-5.2945208E-2,-5.2056894E-2,-2.0198945E-2,-5.479662E-2,2.577764E-2],"categories":[],"categories_nodes":[],"categories_segments":[],"categories_sizes":[],"default_left":[0,0,0,0,0,0,0,0,0,0,0,0,0],"id":36,"left_children":[1,-1,3,-1,5,7,9,11,-1,-1,-1,-1,-1],"loss_changes":[1.0914055E2,0E0,7.467763E1,0E0,6.579622E1,6.754268E1,5.352402E-1,7.05057E1,0E0,0E0,0E0,0E0,0E0],"parents":[2147483647,0,0,2,2,4,4,5,5,6,6,7,7],"right_children":[2,-1,4,-1,6,8,10,12,-1,-1,-1,-1,-1],"split_conditions":[7.00002E1,-4.884805E-2,4.9809378E-2,-5.1112264E-2,4.9939285E1,2.0003451E-1,1.2094653E0,1.2003468E0,-5.2945208E-2,-5.2056894E-2,-2.0198945E-2,-5.479662E-2,2.577764E-2],"split_indices":[3,0,4,0,8,7,0,2,0,0,0,0,0],"split_type":[0,0,0,0,0,0,0,0,0,0,0,0,0],"sum_hessian":[4.6150842E2,6.40312E1,3.9747723E2,3.1354786E1,3.6612244E2,3.4098108E2,2.5141375E1,3.212299E2,1.9751171E1,2.1619505E1,3.521869E0,1.728939E1,3.0394052E2],"tree_param":{"num_deleted":"0","num_feature":"9","num_nodes":"13","size_leaf_vector":"1"}},{"base_weights":[-6.9452543E-3,-4.7924966E-2,1.8568228E-1,3.1564316E-1,-1.2470845E0,-5.784136E-2,4.213034E-1,-1.2363389E-2,-5.2356537E-2,-5.380435E-2,5.3520584E-1,-5.577907E-2,2.606085E-2],"categories":[],"categories_nodes":[],"categories_segments":[],"categories_sizes":[],"default_left":[0,0,0,0,0,0,0,0,0,0,0,0,0],"id":37,"left_children":[1,-1,3,5,7,-1,9,-1,-1,-1,11,-1,-1],"loss_changes":[1.0508962E2,0E0,7.3711845E1,6.802959E1,1.2625427E0,0E0,6.97123E1,0E0,0E0,0E0,7.345833E1,0E0,0E0],"parents":[2147483647,0,0,2,2,3,3,4,4,6,6,10,10],"right_children":[2,-1,4,6,8,-1,10,-1,-1,-1,12,-1,-1],"split_conditions":[4.9809378E-2,-4.7924966E-2,9.972182E-2,1.0498892E0,1.00725584E-1,-5.784136E-2,1.2003468E0,-1.2363389E-2,-5.2356537E-2,-5.380435E-2,7.00002E1,-5.577907E-2,2.606085E-2],"split_indices":[4,0,5,1,5,0,2,0,0,0,3,0,0],"split_type":[0,0,0,0,0,0,0,0,0,0,0,0,0],"sum_hessian":[4.5519424E2,6.2563915E1,3.926303E2,3.6089987E2,3.1730436E1,1.950602E1,3.4139386E2,2.5073879E0,2.922305E1,1.9841434E1,3.2155243E2,1.7481794E1,3.0407065E2],"tree_param":{"num_deleted":"0","num_feature":"9","num_nodes":"13","size_leaf_vector":"1"}},{"base_weights":[-1.8334959E-2,-4.9176924E-2,1.7252518E-1,-5.0988644E-2,2.967485E-1,4.1470304E-1,-5.1713474E-2,-1.3260093E0,5.320187E-1,-5.5573385E-2,-1.7406756E-2,2.598068E-2,-5.2312713E-2],"categories":[],"categories_nodes":[],"categories_segments":[],"categories_sizes":[],"default_left":[0,0,0,0,0,0,0,0,0,0,0,0,0],"id":38,"left_children":[1,-1,3,-1,5,7,-1,9,11,-1,-1,-1,-1],"loss_changes":[1.04404854E2,0E0,7.0438835E1,0E0,6.806341E1,6.941124E1,0E0,3.0567932E-1,6.92281E1,0E0,0E0,0E0,0E0],"parents":[2147483647,0,0,2,2,4,4,5,5,7,7,8,8],"right_children":[2,-1,4,-1,6,8,-1,10,12,-1,-1,-1,-1],"split_conditions":[1.0498892E0,-4.9176924E-2,7.00002E1,-5.0988644E-2,2.0003451E-1,9.003977E0,-5.1713474E-2,1.2647314E0,5.033128E1,-5.5573385E-2,-1.7406756E-2,2.598068E-2,-5.2312713E-2],"split_indices":[1,0,3,0,7,6,0,1,8,0,0,0,0],"split_type":[0,0,0,0,0,0,0,0,0,0,0,0,0],"sum_hessian":[4.489204E2,6.029804E1,3.8862238E2,2.977819E1,3.5884418E2,3.3493994E2,2.3904238E1,2.0313618E1,3.1462634E2,1.8233727E1,2.079891E0,2.9652023E2,1.8106089E1],"tree_param":{"num_deleted":"0","num_feature":"9","num_nodes":"13","size_leaf_vector":"1"}},{"base_weights":[-3.5886284E-2,-4.8959095E-2,1.5084924E-1,-5.0574005E-2,2.7686438E-1,-1.2825782E0,3.9008552E-1,-5.3427815E-2,-1.7108317E-2,-5.2638974E-2,5.027E-1,-5.3128246E-2,2.4910016E-2],"categories":[],"categories_nodes":[],"categories_segments":[],"categories_sizes":[],"default_left":[0,0,0,0,0,0,0,0,0,0,0,0,0],"id":39,"left_children":[1,-1,3,-1,5,7,9,-1,-1,-1,11,-1,-1],"loss_changes":[9.816425E1,0E0,6.846011E1,0E0,6.2641296E1,2.2969437E-1,6.3931904E1,0E0,0E0,0E0,6.897199E1,0E0,0E0],"parents":[2147483647,0,0,2,2,4,4,5,5,6,6,10,10],"right_children":[2,-1,4,-1,6,8,10,-1,-1,-1,12,-1,-1],"split_conditions":[1.0498892E0,-4.8959095E-2,7.00002E1,-5.0574005E-2,9.003977E0,1.3624482E0,9.497231E-1,-5.3427815E-2,-1.7108317E-2,-5.2638974E-2,1.2003468E0,-5.3128246E-2,2.4910016E-2],"split_indices":[1,0,3,0,6,1,0,0,0,0,2,0,0],"split_type":[0,0,0,0,0,0,0,0,0,0,0,0,0],"sum_hessian":[4.397803E2,5.8900455E1,3.8087985E2,3.0190882E1,3.5068896E2,2.2839125E1,3.2784985E2,2.0757442E1,2.0816817E0,1.9451866E1,3.0839798E2,1.818263E1,2.9021536E2],"tree_param":{"num_deleted":"0","num_feature":"9","num_nodes":"13","size_leaf_vector":"1"}},{"base_weights":[-2.0965138E-2,-4.8579626E-2,1.5675835E-1,2.816101E-1,-4.9928635E-2,-5.1482618E-2,3.9264503E-1,-5.439231E-2,4.999848E-1,2.4874171E-2,-5.017046E-2],"categories":[],"categories_nodes":[],"categories_segments":[],"categories_sizes":[],"default_left":[0,0,0,0,0,0,0,0,0,0,0],"id":40,"left_children":[1,-1,3,5,-1,-1,7,-1,9,-1,-1],"loss_changes":[9.327199E1,0E0,6.739385E1,6.1860126E1,0E0,0E0,6.2783863E1,0E0,6.7527176E1,0E0,0E0],"parents":[2147483647,0,0,2,2,3,3,6,6,8,8],"right_children":[2,-1,4,6,-1,-1,8,-1,10,-1,-1],"split_conditions":[1.0498892E0,-4.8579626E-2,2.0003451E-1,7.00002E1,-4.9928635E-2,-5.1482618E-2,4.9809378E-2,-5.439231E-2,4.9939285E1,2.4874171E-2,-5.017046E-2],"split_indices":[1,0,7,3,0,0,4,0,8,0,0],"split_type":[0,0,0,0,0,0,0,0,0,0,0],"sum_hessian":[4.369428E2,5.579649E1,3.8114633E2,3.5098685E2,3.0159473E1,2.2301802E1,3.2868506E2,1.8108479E1,3.1057657E2,2.911796E2,1.9396963E1],"tree_param":{"num_deleted":"0","num_feature":"9","num_nodes":"11","size_leaf_vector":"1"}},{"base_weights":[-2.679491E-2,1.5123942E-1,-4.7876682E-2,-5.0236978E-2,2.731974E-1,3.8393003E-1,-5.129318E-2,-5.5071853E-2,4.9004668E-1,-5.283383E-2,2.4344344E-2],"categories":[],"categories_nodes":[],"categories_segments":[],"categories_sizes":[],"default_left":[0,0,0,0,0,0,0,0,0,0,0],"id":41,"left_children":[1,3,-1,-1,5,7,-1,-1,9,-1,-1],"loss_changes":[8.908627E1,6.395087E1,0E0,0E0,5.9459785E1,6.060907E1,0E0,0E0,6.60013E1,0E0,0E0],"parents":[2147483647,0,0,1,1,4,4,5,5,8,8],"right_children":[2,4,-1,-1,6,8,-1,-1,10,-1,-1],"split_conditions":[9.972182E-2,4.9809378E-2,-4.7876682E-2,-5.0236978E-2,2.0003451E-1,1.0498892E0,-5.129318E-2,-5.5071853E-2,9.497231E-1,-5.283383E-2,2.4344344E-2],"split_indices":[5,4,0,0,7,1,0,0,0,0,0],"split_type":[0,0,0,0,0,0,0,0,0,0,0],"sum_hessian":[4.2489285E2,3.6961523E2,5.5277603E1,2.8524063E1,3.410912E2,3.1932745E2,2.176372E1,1.7281124E1,3.0204636E2,1.7760698E1,2.8428564E2],"tree_param":{"num_deleted":"0","num_feature":"9","num_nodes":"11","size_leaf_vector":"1"}},{"base_weights":[-4.589085E-2,-4.797301E-2,1.24594584E-1,-5.097257E-2,2.441786E-1,-5.1895045E-2,3.5194507E-1,-5.2252036E-2,4.6233878E-1,-5.1904455E-2,2.330115E-2],"categories":[],"categories_nodes":[],"categories_segments":[],"categories_sizes":[],"default_left":[0,0,0,0,0,0,0,0,0,0,0],"id":42,"left_children":[1,-1,3,-1,5,-1,7,-1,9,-1,-1],"loss_changes":[8.403049E1,0E0,6.2507305E1,0E0,5.7569977E1,0E0,5.9649857E1,0E0,6.4965385E1,0E0,0E0],"parents":[2147483647,0,0,2,2,4,4,6,6,8,8],"right_children":[2,-1,4,-1,6,-1,8,-1,10,-1,-1],"split_conditions":[1.2003468E0,-4.797301E-2,1.0498892E0,-5.097257E-2,4.9809378E-2,-5.1895045E-2,7.00002E1,-5.2252036E-2,9.497231E-1,-5.1904455E-2,2.330115E-2],"split_indices":[2,0,1,0,4,0,3,0,0,0,0],"split_type":[0,0,0,0,0,0,0,0,0,0,0],"sum_hessian":[4.2466498E2,5.3828476E1,3.7083652E2,2.8225643E1,3.4261087E2,2.1460003E1,3.2115085E2,1.9177416E1,3.0197345E2,1.8499308E1,2.8347415E2],"tree_param":{"num_deleted":"0","num_feature":"9","num_nodes":"11","size_leaf_vector":"1"}},{"base_weights":[-2.6836429E-2,1.5038848E-1,-1.1840204E0,-4.993683E-2,2.6957783E-1,-1.9093793E-2,-4.8341654E-2,-5.2410312E-2,3.8169163E-1,5.006408E-1,-5.1051002E-2,2.4970822E-2,-4.980653E-2],"categories":[],"categories_nodes":[],"categories_segments":[],"categories_sizes":[],"default_left":[0,0,0,0,0,0,0,0,0,0,0,0,0],"id":43,"left_children":[1,3,5,-1,7,-1,-1,-1,9,11,-1,-1,-1],"loss_changes":[8.5789955E1,6.0728447E1,1.019516E-1,0E0,5.9844555E1,0E0,0E0,0E0,6.2574604E1,6.426327E1,0E0,0E0,0E0],"parents":[2147483647,0,0,1,1,2,2,4,4,8,8,9,9],"right_children":[2,4,6,-1,8,-1,-1,-1,10,12,-1,-1,-1],"split_conditions":[9.972182E-2,9.003977E0,1.00725584E-1,-4.993683E-2,1.0498892E0,-1.9093793E-2,-4.8341654E-2,-5.2410312E-2,2.0003451E-1,4.9939285E1,-5.1051002E-2,2.4970822E-2,-4.980653E-2],"split_indices":[5,6,5,0,1,0,0,0,7,8,0,0,0],"split_type":[0,0,0,0,0,0,0,0,0,0,0,0,0],"sum_hessian":[4.1557465E2,3.6121198E2,5.4362667E1,2.7402884E1,3.338091E2,2.7834773E0,5.157919E1,2.121035E1,3.1259875E2,2.9251083E2,2.0087933E1,2.7393985E2,1.8570972E1],"tree_param":{"num_deleted":"0","num_feature":"9","num_nodes":"13","size_leaf_vector":"1"}},{"base_weights":[-2.8030124E-2,1.3794777E-1,-1.1755722E0,-4.9714763E-2,2.5800288E-1,-1.2469068E-2,-4.807971E-2,-5.16569E-2,3.6204526E-1,4.7130653E-1,-5.057017E-2,2.3584034E-2,-5.0855525E-2],"categories":[],"categories_nodes":[],"categories_segments":[],"categories_sizes":[],"default_left":[0,0,0,0,0,0,0,0,0,0,0,0,0],"id":44,"left_children":[1,3,5,-1,7,-1,-1,-1,9,11,-1,-1,-1],"loss_changes":[7.863356E1,6.0016113E1,5.897293E-1,0E0,5.4076775E1,0E0,0E0,0E0,5.6185696E1,6.1413162E1,0E0,0E0,0E0],"parents":[2147483647,0,0,1,1,2,2,4,4,8,8,9,9],"right_children":[2,4,6,-1,8,-1,-1,-1,10,12,-1,-1,-1],"split_conditions":[9.972182E-2,4.9809378E-2,1.00725584E-1,-4.9714763E-2,1.2003468E0,-1.2469068E-2,-4.807971E-2,-5.16569E-2,5.033128E1,2.0003451E-1,-5.057017E-2,2.3584034E-2,-5.0855525E-2],"split_indices":[5,4,5,0,2,0,0,0,8,7,0,0,0],"split_type":[0,0,0,0,0,0,0,0,0,0,0,0,0],"sum_hessian":[4.1008044E2,3.5910843E2,5.097203E1,2.7760809E1,3.3134763E2,2.0808241E0,4.8891205E1,1.9927418E1,3.114202E2,2.926711E2,1.8749084E1,2.7486465E2,1.780646E1],"tree_param":{"num_deleted":"0","num_feature":"9","num_nodes":"13","size_leaf_vector":"1"}},{"base_weights":[-2.188034E-2,1.4496678E-1,-4.6673663E-2,-4.946751E-2,2.59574E-1,-5.077691E-2,3.6847964E-1,-5.2799005E-2,4.7796443E-1,-5.2467577E-2,2.3755902E-2],"categories":[],"categories_nodes":[],"categories_segments":[],"categories_sizes":[],"default_left":[0,0,0,0,0,0,0,0,0,0,0],"id":45,"left_children":[1,3,-1,-1,5,-1,7,-1,9,-1,-1],"loss_changes":[7.719378E1,5.6071285E1,0E0,0E0,5.481579E1,0E0,5.7175915E1,0E0,6.0612534E1,0E0,0E0],"parents":[2147483647,0,0,1,1,4,4,6,6,8,8],"right_children":[2,4,-1,-1,6,-1,8,-1,10,-1,-1],"split_conditions":[9.972182E-2,9.003977E0,-4.6673663E-2,-4.946751E-2,9.497231E-1,-5.077691E-2,1.0498892E0,-5.2799005E-2,7.00002E1,-5.2467577E-2,2.3755902E-2],"split_indices":[5,6,0,0,0,0,1,0,3,0,0],"split_type":[0,0,0,0,0,0,0,0,0,0,0],"sum_hessian":[4.0128754E2,3.5108685E2,5.020068E1,2.5925005E1,3.2516187E2,2.070901E1,3.0445285E2,1.7675995E1,2.8677686E2,1.6641607E1,2.7013525E2],"tree_param":{"num_deleted":"0","num_feature":"9","num_nodes":"11","size_leaf_vector":"1"}},{"base_weights":[-1.4812255E-2,-4.678625E-2,1.4774005E-1,-1.2185864E0,2.6946712E-1,-5.037763E-2,-1.5972698E-2,-5.0860107E-2,3.769349E-1,4.8876673E-1,-1.1918082E0,2.4231002E-2,-5.028764E-2,-5.0350606E-2,-1.3530744E-2],"categories":[],"categories_nodes":[],"categories_segments":[],"categories_sizes":[],"default_left":[0,0,0,0,0,0,0,0,0,0,0,0,0,0,0],"id":46,"left_children":[1,-1,3,5,7,-1,-1,-1,9,11,13,-1,-1,-1,-1],"loss_changes":[7.545912E1,0E0,5.882952E1,1.9919968E-1,5.4171165E1,0E0,0E0,0E0,5.3966446E1,5.9012558E1,5.0211334E-1,0E0,0E0,0E0,0E0],"parents":[2147483647,0,0,2,2,3,3,4,4,8,8,9,9,10,10],"right_children":[2,-1,4,6,8,-1,-1,-1,10,12,14,-1,-1,-1,-1],"split_conditions":[1.2003468E0,-4.678625E-2,9.003977E0,1.386314E0,4.9809378E-2,-5.037763E-2,-1.5972698E-2,-5.0860107E-2,4.9939285E1,2.0003451E-1,1.3400643E1,2.4231002E-2,-5.028764E-2,-5.0350606E-2,-1.3530744E-2],"split_indices":[2,0,6,1,4,0,0,0,8,7,6,0,0,0,0],"split_type":[0,0,0,0,0,0,0,0,0,0,0,0,0,0,0],"sum_hessian":[3.991225E2,4.84059E1,3.507166E2,2.7737894E1,3.229787E2,2.5690027E1,2.0478678E0,2.0148146E1,3.0283057E2,2.835097E2,1.9320845E1,2.6649127E2,1.7018444E1,1.7278538E1,2.0423076E0],"tree_param":{"num_deleted":"0","num_feature":"9","num_nodes":"15","size_leaf_vector":"1"}},{"base_weights":[-2.4508025E-2,1.3336016E-1,-4.5530763E-2,-4.814719E-2,2.4581355E-1,-5.0694678E-2,3.5043517E-1,-5.0758824E-2,4.5970428E-1,-5.2652106E-2,2.2966761E-2],"categories":[],"categories_nodes":[],"categories_segments":[],"categories_sizes":[],"default_left":[0,0,0,0,0,0,0,0,0,0,0],"id":47,"left_children":[1,3,-1,-1,5,-1,7,-1,9,-1,-1],"loss_changes":[6.9058975E1,5.192004E1,0E0,0E0,5.0784584E1,0E0,5.342818E1,0E0,5.7858356E1,0E0,0E0],"parents":[2147483647,0,0,1,1,4,4,6,6,8,8],"right_children":[2,4,-1,-1,6,-1,8,-1,10,-1,-1],"split_conditions":[4.9939285E1,9.003977E0,-4.5530763E-2,-4.814719E-2,9.497231E-1,-5.0694678E-2,1.2003468E0,-5.0758824E-2,1.0498892E0,-5.2652106E-2,2.2966761E-2],"split_indices":[8,6,0,0,0,0,2,0,1,0,0],"split_type":[0,0,0,0,0,0,0,0,0,0,0],"sum_hessian":[3.899581E2,3.4239273E2,4.7565357E1,2.5590837E1,3.168019E2,1.956298E1,2.9723892E2,1.7925522E1,2.7931342E2,1.6096159E1,2.6321725E2],"tree_param":{"num_deleted":"0","num_feature":"9","num_nodes":"11","size_leaf_vector":"1"}},{"base_weights":[-3.1299494E-2,1.22554466E-1,-4.7934655E-2,-4.981001E-2,2.3487678E-1,3.4320986E-1,-4.89738E-2,-5.044748E-2,4.5389146E-1,-5.1978063E-2,2.269124E-2],"categories":[],"categories_nodes":[],"categories_segments":[],"categories_sizes":[],"default_left":[0,0,0,0,0,0,0,0,0,0,0],"id":48,"left_children":[1,3,-1,-1,5,7,-1,-1,9,-1,-1],"loss_changes":[7.0018875E1,5.3123196E1,0E0,0E0,5.0861565E1,5.3534283E1,0E0,0E0,5.6431187E1,0E0,0E0],"parents":[2147483647,0,0,1,1,4,4,5,5,8,8],"right_children":[2,4,-1,-1,6,8,-1,-1,10,-1,-1],"split_conditions":[1.00725584E-1,7.00002E1,-4.7934655E-2,-4.981001E-2,2.0003451E-1,9.497231E-1,-4.89738E-2,-5.044748E-2,1.0498892E0,-5.1978063E-2,2.269124E-2],"split_indices":[5,3,0,0,7,0,0,0,1,0,0],"split_type":[0,0,0,0,0,0,0,0,0,0,0],"sum_hessian":[3.8717096E2,3.429485E2,4.422246E1,2.503924E1,3.1790927E2,2.968568E2,2.1052454E1,1.8294191E1,2.7856262E2,1.6104513E1,2.624581E2],"tree_param":{"num_deleted":"0","num_feature":"9","num_nodes":"11","size_leaf_vector":"1"}},{"base_weights":[-9.75028E-3,-4.6353508E-2,1.4559591E-1,-4.9388945E-2,2.558916E-1,-1.2256743E0,3.6497933E-1,-1.772794E-2,-5.134818E-2,4.7601548E-1,-4.9199346E-2,-5.0217263E-2,2.3705658E-2],"categories":[],"categories_nodes":[],"categories_segments":[],"categories_sizes":[],"default_left":[0,0,0,0,0,0,0,0,0,0,0,0,0],"id":49,"left_children":[1,-1,3,-1,5,7,9,-1,-1,11,-1,-1,-1],"loss_changes":[6.813574E1,0E0,5.1394306E1,0E0,5.086859E1,1.2566757E-1,5.225946E1,0E0,0E0,5.6053635E1,0E0,0E0,0E0],"parents":[2147483647,0,0,2,2,4,4,5,5,6,6,9,9],"right_children":[2,-1,4,-1,6,8,10,-1,-1,12,-1,-1,-1],"split_conditions":[4.9809378E-2,-4.6353508E-2,7.00002E1,-4.9388945E-2,9.003977E0,1.7451824E-1,2.0003451E-1,-1.772794E-2,-5.134818E-2,9.497231E-1,-4.9199346E-2,-5.0217263E-2,2.3705658E-2],"split_indices":[4,0,3,0,6,4,7,0,0,0,0,0,0],"split_type":[0,0,0,0,0,0,0,0,0,0,0,0,0],"sum_hessian":[3.7879745E2,4.4264847E1,3.3453262E2,2.3780914E1,3.107517E2,2.0406263E1,2.9034543E2,2.2434766E0,1.8162786E1,2.722938E2,1.8051647E1,1.6390028E1,2.5590376E2],"tree_param":{"num_deleted":"0","num_feature":"9","num_nodes":"13","size_leaf_vector":"1"}},{"base_weights":[-1.8470678E-2,1.296425E-1,-4.7475863E-2,-4.8644852E-2,2.3813486E-1,-1.2179366E0,3.4013462E-1,-1.5833253E-2,-5.103582E-2,-5.039144E-2,4.4374835E-1,2.2192972E-2,-4.94689E-2],"categories":[],"categories_nodes":[],"categories_segments":[],"categories_sizes":[],"default_left":[0,0,0,0,0,0,0,0,0,0,0,0,0],"id":50,"left_children":[1,3,-1,-1,5,7,9,-1,-1,-1,11,-1,-1],"loss_changes":[6.542528E1,4.9166763E1,0E0,0E0,4.6615654E1,2.0666695E-1,4.895354E1,0E0,0E0,0E0,5.207736E1,0E0,0E0],"parents":[2147483647,0,0,1,1,4,4,5,5,6,6,10,10],"right_children":[2,4,-1,-1,6,8,10,-1,-1,-1,12,-1,-1],"split_conditions":[1.00725584E-1,4.9809378E-2,-4.7475863E-2,-4.8644852E-2,9.003977E0,1.913565E-1,7.00002E1,-1.5833253E-2,-5.103582E-2,-5.039144E-2,5.033128E1,2.2192972E-2,-4.94689E-2],"split_indices":[5,4,0,0,6,4,3,0,0,0,8,0,0],"split_type":[0,0,0,0,0,0,0,0,0,0,0,0,0],"sum_hessian":[3.7517337E2,3.3383652E2,4.1336853E1,2.3922579E1,3.0991394E2,1.9364986E1,2.9054895E2,2.0077205E0,1.7357265E1,1.6798872E1,2.737501E2,2.5758737E2,1.6162722E1],"tree_param":{"num_deleted":"0","num_feature":"9","num_nodes":"13","size_leaf_vector":"1"}},{"base_weights":[-2.1407165E-2,-4.6471685E-2,1.2900639E-1,-4.9335774E-2,2.3604344E-1,-4.881304E-2,3.4468424E-1,4.5309258E-1,-4.8304223E-2,2.2717351E-2,-4.6542697E-2],"categories":[],"categories_nodes":[],"categories_segments":[],"categories_sizes":[],"default_left":[0,0,0,0,0,0,0,0,0,0,0],"id":51,"left_children":[1,-1,3,-1,5,-1,7,9,-1,-1,-1],"loss_changes":[6.263484E1,0E0,4.7227745E1,0E0,4.784526E1,0E0,4.769127E1,4.9488853E1,0E0,0E0,0E0],"parents":[2147483647,0,0,2,2,4,4,6,6,7,7],"right_children":[2,-1,4,-1,6,-1,8,10,-1,-1,-1],"split_conditions":[1.2003468E0,-4.6471685E-2,1.0498892E0,-4.9335774E-2,9.497231E-1,-4.881304E-2,2.0003451E-1,4.9939285E1,-4.8304223E-2,2.2717351E-2,-4.6542697E-2],"split_indices":[2,0,1,0,0,0,7,8,0,0,0],"split_type":[0,0,0,0,0,0,0,0,0,0,0],"sum_hessian":[3.6230453E2,4.1355682E1,3.2094885E2,2.2390734E1,2.985581E2,1.9809177E1,2.7874893E2,2.6140704E2,1.7341904E1,2.4485387E2,1.655317E1],"tree_param":{"num_deleted":"0","num_feature":"9","num_nodes":"11","size_leaf_vector":"1"}},{"base_weights":[-3.0313138E-2,1.1657703E-1,-1.1513408E0,-4.9124602E-2,2.2142838E-1,-1.4945961E-2,-4.741415E-2,-1.2084553E0,3.2438776E-1,-1.5532933E-2,-5.0693464E-2,-5.0286286E-2,4.3086922E-1,2.1841027E-2,-4.828018E-2],"categories":[],"categories_nodes":[],"categories_segments":[],"categories_sizes":[],"default_left":[0,0,0,0,0,0,0,0,0,0,0,0,0,0,0],"id":52,"left_children":[1,3,5,-1,7,-1,-1,9,11,-1,-1,-1,13,-1,-1],"loss_changes":[6.0565968E1,4.6018158E1,4.3982315E-1,0E0,4.4898182E1,0E0,0E0,2.337799E-1,4.8239445E1,0E0,0E0,0E0,5.0928627E1,0E0,0E0],"parents":[2147483647,0,0,1,1,2,2,4,4,7,7,8,8,12,12],"right_children":[2,4,6,-1,8,-1,-1,10,12,-1,-1,-1,14,-1,-1],"split_conditions":[9.972182E-2,1.0498892E0,1.00725584E-1,-4.9124602E-2,9.003977E0,-1.4945961E-2,-4.741415E-2,7.332125E1,1.2003468E0,-1.5532933E-2,-5.0693464E-2,-5.0286286E-2,2.0003451E-1,2.1841027E-2,-4.828018E-2],"split_indices":[5,1,5,0,6,0,0,3,2,0,0,0,7,0,0],"split_type":[0,0,0,0,0,0,0,0,0,0,0,0,0,0,0],"sum_hessian":[3.6500012E2,3.235861E2,4.141403E1,2.2407415E1,3.0117868E2,2.4612474E0,3.895278E1,1.9299156E1,2.8187955E2,2.0170395E0,1.7282116E1,1.6903843E1,2.6497568E2,2.483739E2,1.6601793E1],"tree_param":{"num_deleted":"0","num_feature":"9","num_nodes":"15","size_leaf_vector":"1"}},{"base_weights":[-1.6981622E-2,1.2876119E-1,-1.1589521E0,-4.8087113E-2,2.3657814E-1,-4.777903E-2,-1.6967535E-2,-4.995471E-2,3.3680555E-1,-5.029767E-2,4.3935648E-1,-5.1000364E-2,2.1968981E-2],"categories":[],"categories_nodes":[],"categories_segments":[],"categories_sizes":[],"default_left":[0,0,0,0,0,0,0,0,0,0,0,0,0],"id":53,"left_children":[1,3,5,-1,7,-1,-1,-1,9,-1,11,-1,-1],"loss_changes":[6.025611E1,4.6245186E1,2.9979706E-1,0E0,4.4723232E1,0E0,0E0,0E0,4.6328033E1,0E0,5.0464733E1,0E0,0E0],"parents":[2147483647,0,0,1,1,2,2,4,4,8,8,10,10],"right_children":[2,4,6,-1,8,-1,-1,-1,10,-1,12,-1,-1],"split_conditions":[9.972182E-2,1.2003468E0,1.0924149E2,-4.8087113E-2,4.9809378E-2,-4.777903E-2,-1.6967535E-2,-4.995471E-2,7.00002E1,-5.029767E-2,1.0498892E0,-5.1000364E-2,2.1968981E-2],"split_indices":[5,2,3,0,4,0,0,0,3,0,1,0,0],"split_type":[0,0,0,0,0,0,0,0,0,0,0,0,0],"sum_hessian":[3.591472E2,3.1936563E2,3.9781578E1,2.295024E1,2.9641537E2,3.7100967E1,2.68061E0,1.7803526E1,2.7861185E2,1.5963029E1,2.6264883E2,1.4997284E1,2.4765154E2],"tree_param":{"num_deleted":"0","num_feature":"9","num_nodes":"13","size_leaf_vector":"1"}},{"base_weights":[-3.6008853E-2,-4.5869984E-2,1.04857415E-1,-1.178619E0,2.101892E-1,-4.8946884E-2,-1.6248848E-2,-4.937194E-2,3.11083E-1,4.1891274E-1,-4.8063822E-2,2.1444917E-2,-4.8671085E-2],"categories":[],"categories_nodes":[],"categories_segments":[],"categories_sizes":[],"default_left":[0,0,0,0,0,0,0,0,0,0,0,0,0],"id":54,"left_children":[1,-1,3,5,7,-1,-1,-1,9,11,-1,-1,-1],"loss_changes":[5.5923325E1,0E0,4.3028778E1,8.0444336E-2,4.3195904E1,0E0,0E0,0E0,4.549568E1,5.02371E1,0E0,0E0,0E0],"parents":[2147483647,0,0,2,2,3,3,4,4,8,8,9,9],"right_children":[2,-1,4,6,8,-1,-1,-1,10,12,-1,-1,-1],"split_conditions":[4.9809378E-2,-4.5869984E-2,9.003977E0,1.3414375E0,7.00002E1,-4.8946884E-2,-1.6248848E-2,-4.937194E-2,2.0003451E-1,9.972182E-2,-4.8063822E-2,2.1444917E-2,-4.8671085E-2],"split_indices":[4,0,6,1,3,0,0,0,7,5,0,0,0],"split_type":[0,0,0,0,0,0,0,0,0,0,0,0,0],"sum_hessian":[3.546273E2,3.9028194E1,3.155991E2,2.2936695E1,2.926624E2,2.0887766E1,2.0489302E0,1.8162334E1,2.7450006E2,2.571063E2,1.739377E1,2.407243E2,1.638199E1],"tree_param":{"num_deleted":"0","num_feature":"9","num_nodes":"13","size_leaf_vector":"1"}},{"base_weights":[-1.11293E-2,-4.5426425E-2,1.2598477E-1,-4.788106E-2,2.2820613E-1,-4.8905138E-2,3.2963753E-1,4.3702996E-1,-1.1738838E0,-4.9374957E-2,2.1949854E-2,-1.0735508E-2,-5.125577E-2],"categories":[],"categories_nodes":[],"categories_segments":[],"categories_sizes":[],"default_left":[0,0,0,0,0,0,0,0,0,0,0,0,0],"id":55,"left_children":[1,-1,3,-1,5,-1,7,9,11,-1,-1,-1,-1],"loss_changes":[5.3856976E1,0E0,4.225755E1,0E0,4.300392E1,0E0,4.4402023E1,4.8258423E1,1.2208633E0,0E0,0E0,0E0,0E0],"parents":[2147483647,0,0,2,2,4,4,6,6,7,7,8,8],"right_children":[2,-1,4,-1,6,-1,8,10,12,-1,-1,-1,-1],"split_conditions":[1.2003468E0,-4.5426425E-2,9.497231E-1,-4.788106E-2,1.0498892E0,-4.8905138E-2,9.972182E-2,7.00002E1,1.00725584E-1,-4.9374957E-2,2.1949854E-2,-1.0735508E-2,-5.125577E-2],"split_indices":[2,0,0,0,1,0,5,3,5,0,0,0,0],"split_type":[0,0,0,0,0,0,0,0,0,0,0,0,0],"sum_hessian":[3.4632343E2,3.676751E1,3.095559E2,2.1210192E1,2.8834573E2,1.7910505E1,2.704352E2,2.5326303E2,1.7172186E1,1.5055879E1,2.3820715E2,2.3664875E0,1.4805698E1],"tree_param":{"num_deleted":"0","num_feature":"9","num_nodes":"13","size_leaf_vector":"1"}},{"base_weights":[-2.2877075E-2,-4.5062136E-2,1.1258968E-1,-4.7778685E-2,2.1673517E-1,3.1616214E-1,-4.7795385E-2,4.2109993E-1,-4.763438E-2,-4.861118E-2,2.1335095E-2],"categories":[],"categories_nodes":[],"categories_segments":[],"categories_sizes":[],"default_left":[0,0,0,0,0,0,0,0,0,0,0],"id":56,"left_children":[1,-1,3,-1,5,7,-1,9,-1,-1,-1],"loss_changes":[5.1364788E1,0E0,4.179775E1,0E0,4.0230484E1,4.264781E1,0E0,4.663595E1,0E0,0E0,0E0],"parents":[2147483647,0,0,2,2,4,4,5,5,7,7],"right_children":[2,-1,4,-1,6,8,-1,10,-1,-1,-1],"split_conditions":[9.003977E0,-4.5062136E-2,4.9809378E-2,-4.7778685E-2,9.972182E-2,2.0003451E-1,-4.7795385E-2,7.00002E1,-4.763438E-2,-4.861118E-2,2.1335095E-2],"split_indices":[6,0,4,0,5,7,0,3,0,0,0],"split_type":[0,0,0,0,0,0,0,0,0,0,0],"sum_hessian":[3.4065463E2,3.6362286E1,3.0429236E2,2.1458504E1,2.8283386E2,2.6515952E2,1.7674347E1,2.4876819E2,1.6391321E1,1.5158756E1,2.3360944E2],"tree_param":{"num_deleted":"0","num_feature":"9","num_nodes":"11","size_leaf_vector":"1"}},{"base_weights":[-3.5727687E-2,1.0404071E-1,-4.6017416E-2,-4.752916E-2,2.0722888E-1,-4.9238805E-2,3.0629238E-1,4.1316232E-1,-1.1334537E0,-4.7971047E-2,2.090386E-2,-9.826554E-3,-4.9820952E-2],"categories":[],"categories_nodes":[],"categories_segments":[],"categories_sizes":[],"default_left":[0,0,0,0,0,0,0,0,0,0,0,0,0],"id":57,"left_children":[1,3,-1,-1,5,-1,7,9,11,-1,-1,-1,-1],"loss_changes":[5.310017E1,4.0528522E1,0E0,0E0,4.04207E1,0E0,4.1123875E1,4.4230755E1,1.3247681E0,0E0,0E0,0E0,0E0],"parents":[2147483647,0,0,1,1,4,4,6,6,7,7,8,8],"right_children":[2,4,-1,-1,6,-1,8,10,12,-1,-1,-1,-1],"split_conditions":[5.033128E1,4.9809378E-2,-4.6017416E-2,-4.752916E-2,9.497231E-1,-4.9238805E-2,9.972182E-2,7.00002E1,1.00725584E-1,-4.7971047E-2,2.090386E-2,-9.826554E-3,-4.9820952E-2],"split_indices":[8,4,0,0,0,0,5,3,5,0,0,0,0],"split_type":[0,0,0,0,0,0,0,0,0,0,0,0,0],"sum_hessian":[3.3802716E2,3.012527E2,3.6774487E1,2.1271627E1,2.7998105E2,1.7093775E1,2.6288727E2,2.4558315E2,1.730413E1,1.4790512E1,2.3079263E2,2.4689016E0,1.4835229E1],"tree_param":{"num_deleted":"0","num_feature":"9","num_nodes":"13","size_leaf_vector":"1"}},{"base_weights":[-2.904698E-2,1.039335E-1,-1.1120296E0,-4.7068305E-2,2.0523003E-1,-4.6081867E-2,-1.4465435E-2,-4.8600744E-2,3.0310133E-1,4.1039592E-1,-4.7329515E-2,-4.7552746E-2,2.1029046E-2],"categories":[],"categories_nodes":[],"categories_segments":[],"categories_sizes":[],"default_left":[0,0,0,0,0,0,0,0,0,0,0,0,0],"id":58,"left_children":[1,3,5,-1,7,-1,-1,-1,9,11,-1,-1,-1],"loss_changes":[4.7744804E1,3.8435825E1,4.3750763E-1,0E0,3.8477203E1,0E0,0E0,0E0,4.1591476E1,4.5177364E1,0E0,0E0,0E0],"parents":[2147483647,0,0,1,1,2,2,4,4,8,8,9,9],"right_children":[2,4,6,-1,8,-1,-1,-1,10,12,-1,-1,-1],"split_conditions":[9.972182E-2,4.9809378E-2,1.0924149E2,-4.7068305E-2,1.2003468E0,-4.6081867E-2,-1.4465435E-2,-4.8600744E-2,2.0003451E-1,9.003977E0,-4.7329515E-2,-4.7552746E-2,2.1029046E-2],"split_indices":[5,4,3,0,2,0,0,0,7,6,0,0,0],"split_type":[0,0,0,0,0,0,0,0,0,0,0,0,0],"sum_hessian":[3.2866235E2,2.9360303E2,3.5059303E1,2.051502E1,2.73088E2,3.2548004E1,2.5113008E0,1.6656721E1,2.564313E2,2.4003947E2,1.6391819E1,1.5336796E1,2.2470268E2],"tree_param":{"num_deleted":"0","num_feature":"9","num_nodes":"13","size_leaf_vector":"1"}},{"base_weights":[-3.324202E-2,1.0474239E-1,-4.542723E-2,-4.7464397E-2,2.049499E-1,-4.8585884E-2,3.060424E-1,-4.970765E-2,4.094837E-1,2.106547E-2,-4.680249E-2],"categories":[],"categories_nodes":[],"categories_segments":[],"categories_sizes":[],"default_left":[0,0,0,0,0,0,0,0,0,0,0],"id":59,"left_children":[1,3,-1,-1,5,-1,7,-1,9,-1,-1],"loss_changes":[5.0472984E1,3.8299168E1,0E0,0E0,3.9728947E1,0E0,4.1722927E1,0E0,4.545868E1,0E0,0E0],"parents":[2147483647,0,0,1,1,4,4,6,6,8,8],"right_children":[2,4,-1,-1,6,-1,8,-1,10,-1,-1],"split_conditions":[4.9939285E1,1.2003468E0,-4.542723E-2,-4.7464397E-2,9.497231E-1,-4.8585884E-2,1.0498892E0,-4.970765E-2,2.0003451E-1,2.106547E-2,-4.680249E-2],"split_indices":[8,2,0,0,0,0,1,0,7,0,0],"split_type":[0,0,0,0,0,0,0,0,0,0,0],"sum_hessian":[3.2898245E2,2.932711E2,3.5711376E1,2.0110006E1,2.7316107E2,1.7214737E1,2.5594633E2,1.5136604E1,2.4080972E2,2.24986E2,1.5823732E1],"tree_param":{"num_deleted":"0","num_feature":"9","num_nodes":"11","size_leaf_vector":"1"}},{"base_weights":[-3.2543108E-2,9.7453505E-2,-1.1172155E0,-4.829719E-2,1.9372414E-1,-4.6250045E-2,-1.6476575E-2,-1.1683873E0,2.9492447E-1,-1.581909E-2,-4.942252E-2,-4.7675993E-2,4.0112534E-1,-4.7951963E-2,2.0587565E-2],"categories":[],"categories_nodes":[],"categories_segments":[],"categories_sizes":[],"default_left":[0,0,0,0,0,0,0,0,0,0,0,0,0,0,0],"id":60,"left_children":[1,3,5,-1,7,-1,-1,9,11,-1,-1,-1,13,-1,-1],"loss_changes":[4.614906E1,3.6837124E1,2.3607254E-1,0E0,3.7939713E1,0E0,0E0,2.3933792E-1,4.076309E1,0E0,0E0,0E0,4.4093296E1,0E0,0E0],"parents":[2147483647,0,0,1,1,2,2,4,4,7,7,8,8,12,12],"right_children":[2,4,6,-1,8,-1,-1,10,12,-1,-1,-1,14,-1,-1],"split_conditions":[4.9939285E1,1.0498892E0,1.1305513E2,-4.829719E-2,9.003977E0,-4.6250045E-2,-1.6476575E-2,1.7451824E-1,7.00002E1,-1.581909E-2,-4.942252E-2,-4.7675993E-2,1.2003468E0,-4.7951963E-2,2.0587565E-2],"split_indices":[8,1,3,0,6,0,0,4,3,0,0,0,2,0,0],"split_type":[0,0,0,0,0,0,0,0,0,0,0,0,0,0,0],"sum_hessian":[3.2443982E2,2.906105E2,3.3829308E1,1.894429E1,2.7166623E2,3.119382E1,2.6354887E0,1.7844517E1,2.538217E2,2.2068028E0,1.5637713E1,1.60407E1,2.37781E2,1.49408865E1,2.2284012E2],"tree_param":{"num_deleted":"0","num_feature":"9","num_nodes":"15","size_leaf_vector":"1"}},{"base_weights":[-3.8067676E-2,9.094878E-2,-1.1009448E0,-4.80682E-2,1.9019967E-1,-4.5565523E-2,-1.5841005E-2,-4.8254114E-2,2.8821674E-1,-4.6298098E-2,3.9737937E-1,-4.7516633E-2,2.0512896E-2],"categories":[],"categories_nodes":[],"categories_segments":[],"categories_sizes":[],"default_left":[0,0,0,0,0,0,0,0,0,0,0,0,0],"id":61,"left_children":[1,3,5,-1,7,-1,-1,-1,9,-1,11,-1,-1],"loss_changes":[4.4183117E1,3.6983036E1,2.4415207E-1,0E0,3.6950756E1,0E0,0E0,0E0,4.0094784E1,0E0,4.3557896E1,0E0,0E0],"parents":[2147483647,0,0,1,1,2,2,4,4,8,8,10,10],"right_children":[2,4,6,-1,8,-1,-1,-1,10,-1,12,-1,-1],"split_conditions":[4.9939285E1,1.2003468E0,1.1305513E2,-4.80682E-2,9.497231E-1,-4.5565523E-2,-1.5841005E-2,-4.8254114E-2,9.003977E0,-4.6298098E-2,7.00002E1,-4.7516633E-2,2.0512896E-2],"split_indices":[8,2,3,0,0,0,0,0,6,0,3,0,0],"split_type":[0,0,0,0,0,0,0,0,0,0,0,0,0],"sum_hessian":[3.1938922E2,2.8571158E2,3.367763E1,1.9350595E1,2.66361E2,3.1110962E1,2.56667E0,1.6511723E1,2.4984926E2,1.6668205E1,2.3318106E2,1.5012398E1,2.1816866E2],"tree_param":{"num_deleted":"0","num_feature":"9","num_nodes":"13","size_leaf_vector":"1"}},{"base_weights":[-1.0833336E-2,-4.521682E-2,1.1330039E-1,2.091017E-1,-4.811802E-2,3.1186324E-1,-1.1194371E0,-4.809983E-2,4.150723E-1,-4.8404593E-2,-1.729221E-2,-4.9412157E-2,2.0975377E-2],"categories":[],"categories_nodes":[],"categories_segments":[],"categories_sizes":[],"default_left":[0,0,0,0,0,0,0,0,0,0,0,0,0],"id":62,"left_children":[1,-1,3,5,-1,7,9,-1,11,-1,-1,-1,-1],"loss_changes":[4.4078865E1,0E0,3.6123344E1,3.673922E1,0E0,3.9358932E1,4.1267776E-1,0E0,4.284804E1,0E0,0E0,0E0,0E0],"parents":[2147483647,0,0,2,2,3,3,5,5,6,6,8,8],"right_children":[2,-1,4,6,-1,8,10,-1,12,-1,-1,-1,-1],"split_conditions":[4.9809378E-2,-4.521682E-2,1.00725584E-1,4.9939285E1,-4.811802E-2,9.497231E-1,1.2094653E0,-4.809983E-2,1.0498892E0,-4.8404593E-2,-1.729221E-2,-4.9412157E-2,2.0975377E-2],"split_indices":[4,0,5,8,0,0,0,0,1,0,0,0,0],"split_type":[0,0,0,0,0,0,0,0,0,0,0,0,0],"sum_hessian":[3.1412537E2,3.0461824E1,2.8366354E2,2.6542996E2,1.8233574E1,2.4729541E2,1.8134546E1,1.4901369E1,2.3239404E2,1.5084984E1,3.049563E0,1.3611671E1,2.1878238E2],"tree_param":{"num_deleted":"0","num_feature":"9","num_nodes":"13","size_leaf_vector":"1"}},{"base_weights":[-2.7905885E-2,-4.5056026E-2,9.6479386E-2,7.319142E-1,-1.08759135E-1,-3.16258E-2,8.290191E-1,-3.939682E-1,5.48721E-1,-2.2484753E-2,8.886127E-1,-3.0496928E-1,-4.8484255E-2,6.6509867E-1,-3.5487387E-2,-1.33127915E-2,3.750812E-2,-1.5780892E-2,3.9341502E-2,3.032176E-2,-3.235395E-2],"categories":[],"categories_nodes":[],"categories_segments":[],"categories_sizes":[],"default_left":[0,0,0,0,0,0,0,0,0,0,0,0,0,0,0,0,0,0,0,0,0],"id":63,"left_children":[1,-1,3,5,7,-1,9,11,13,-1,15,17,-1,19,-1,-1,-1,-1,-1,-1,-1],"loss_changes":[4.222729E1,0E0,3.6296356E1,1.0832939E1,3.96938E1,0E0,5.9792976E0,1.014707E1,1.1388235E1,0E0,4.1755867E0,1.59580345E1,0E0,8.9496E0,0E0,0E0,0E0,0E0,0E0,0E0,0E0],"parents":[2147483647,0,0,2,2,3,3,4,4,6,6,7,7,8,8,10,10,11,11,13,13],"right_children":[2,-1,4,6,8,-1,10,12,14,-1,16,18,-1,20,-1,-1,-1,-1,-1,-1,-1],"split_conditions":[4.9809378E-2,-4.5056026E-2,2.0025E-1,1.0498892E0,2.0113659E-1,-3.16258E-2,7.0361824E1,4.9939285E1,1.00725584E-1,-2.2484753E-2,1.2115713E0,3.88038E1,-4.8484255E-2,4.9939285E1,-3.5487387E-2,-1.33127915E-2,3.750812E-2,-1.5780892E-2,3.9341502E-2,3.032176E-2,-3.235395E-2],"split_indices":[4,0,4,1,4,0,3,8,5,0,2,8,0,8,0,0,0,0,0,0,0],"split_type":[0,0,0,0,0,0,0,0,0,0,0,0,0,0,0,0,0,0,0,0,0],"sum_hessian":[3.0614005E2,3.0237547E1,2.759025E2,6.672485E1,2.0917764E2,3.4248226E0,6.3300034E1,1.4633281E2,6.284483E1,2.1156528E0,6.118438E1,1.3357208E2,1.2760728E1,5.879353E1,4.0513005E0,2.017346E0,5.9167034E1,1.2574296E2,7.8291235E0,5.5918095E1,2.8754377E0],"tree_param":{"num_deleted":"0","num_feature":"9","num_nodes":"21","size_leaf_vector":"1"}},{"base_weights":[-2.656129E-2,-4.4923585E-2,9.385024E-2,1.9610472E-1,-4.5577172E-2,-4.6077088E-2,2.931642E-1,-4.679304E-2,3.959029E-1,2.0306366E-2,-4.65109E-2],"categories":[],"categories_nodes":[],"categories_segments":[],"categories_sizes":[],"default_left":[0,0,0,0,0,0,0,0,0,0,0],"id":64,"left_children":[1,-1,3,5,-1,-1,7,-1,9,-1,-1],"loss_changes":[4.042354E1,0E0,3.48946E1,3.3728344E1,0E0,0E0,3.6434387E1,0E0,3.9745876E1,0E0,0E0],"parents":[2147483647,0,0,2,2,3,3,6,6,8,8],"right_children":[2,-1,4,6,-1,-1,8,-1,10,-1,-1],"split_conditions":[9.497231E-1,-4.4923585E-2,9.972182E-2,1.2003468E0,-4.5577172E-2,-4.6077088E-2,7.00002E1,-4.679304E-2,2.0003451E-1,2.0306366E-2,-4.65109E-2],"split_indices":[0,0,5,2,0,0,3,0,7,0,0],"split_type":[0,0,0,0,0,0,0,0,0,0,0],"sum_hessian":[3.0322107E2,2.9096016E1,2.7412506E2,2.5414362E2,1.998145E1,1.6124382E1,2.3801923E2,1.4736446E1,2.2328279E2,2.0915948E2,1.4123309E1],"tree_param":{"num_deleted":"0","num_feature":"9","num_nodes":"11","size_leaf_vector":"1"}},{"base_weights":[-2.8400104E-2,-4.4937626E-2,9.0820335E-2,-1.1356087E0,1.8941781E-1,-1.5002216E-2,-4.7746275E-2,-4.8069417E-2,2.8291467E-1,3.8548633E-1,-4.6226084E-2,2.0147229E-2,-4.3953627E-2],"categories":[],"categories_nodes":[],"categories_segments":[],"categories_sizes":[],"default_left":[0,0,0,0,0,0,0,0,0,0,0,0,0],"id":65,"left_children":[1,-1,3,5,7,-1,-1,-1,9,11,-1,-1,-1],"loss_changes":[3.992753E1,0E0,3.345096E1,2.1448898E-1,3.3600433E1,0E0,0E0,0E0,3.599234E1,4.021151E1,0E0,0E0,0E0],"parents":[2147483647,0,0,2,2,3,3,4,4,8,8,9,9],"right_children":[2,-1,4,6,8,-1,-1,-1,10,12,-1,-1,-1],"split_conditions":[4.9809378E-2,-4.4937626E-2,9.003977E0,1.7451824E-1,1.0498892E0,-1.5002216E-2,-4.7746275E-2,-4.8069417E-2,2.0003451E-1,4.9939285E1,-4.6226084E-2,2.0147229E-2,-4.3953627E-2],"split_indices":[4,0,6,4,1,0,0,0,7,8,0,0,0],"split_type":[0,0,0,0,0,0,0,0,0,0,0,0,0],"sum_hessian":[3.0290924E2,2.8830627E1,2.740786E2,1.9380022E1,2.5469858E2,2.1313205E0,1.7248701E1,1.5076702E1,2.3962187E2,2.2455852E2,1.5063359E1,2.0879288E2,1.5765637E1],"tree_param":{"num_deleted":"0","num_feature":"9","num_nodes":"13","size_leaf_vector":"1"}},{"base_weights":[-3.4046385E-2,8.252598E-2,-4.543042E-2,-4.6175655E-2,1.7529054E-1,-4.6090692E-2,2.6922923E-1,3.7042272E-1,-4.632826E-2,-4.7491074E-2,1.9084841E-2],"categories":[],"categories_nodes":[],"categories_segments":[],"categories_sizes":[],"default_left":[0,0,0,0,0,0,0,0,0,0,0],"id":66,"left_children":[1,3,-1,-1,5,-1,7,9,-1,-1,-1],"loss_changes":[3.8770977E1,3.1412407E1,0E0,0E0,3.2035934E1,0E0,3.4933784E1,3.7836853E1,0E0,0E0,0E0],"parents":[2147483647,0,0,1,1,4,4,6,6,7,7],"right_children":[2,4,-1,-1,6,-1,8,10,-1,-1,-1],"split_conditions":[1.00725584E-1,9.497231E-1,-4.543042E-2,-4.6175655E-2,7.00002E1,-4.6090692E-2,5.033128E1,4.9809378E-2,-4.632826E-2,-4.7491074E-2,1.9084841E-2],"split_indices":[5,0,0,0,3,0,8,4,0,0,0],"split_type":[0,0,0,0,0,0,0,0,0,0,0],"sum_hessian":[2.9898956E2,2.713024E2,2.7687162E1,1.7893972E1,2.5340842E2,1.5782564E1,2.3762585E2,2.227905E2,1.4835367E1,1.3443105E1,2.0934738E2],"tree_param":{"num_deleted":"0","num_feature":"9","num_nodes":"11","size_leaf_vector":"1"}},{"base_weights":[-3.3918213E-2,-4.426875E-2,7.897992E-2,1.7392981E-1,-4.5160674E-2,-4.757061E-2,2.686573E-1,3.747515E-1,-1.1051791E0,-4.6311762E-2,1.9437248E-2,-1.5185697E-2,-4.7963746E-2],"categories":[],"categories_nodes":[],"categories_segments":[],"categories_sizes":[],"default_left":[0,0,0,0,0,0,0,0,0,0,0,0,0],"id":67,"left_children":[1,-1,3,5,-1,-1,7,9,11,-1,-1,-1,-1],"loss_changes":[3.583034E1,0E0,3.0781832E1,3.241901E1,0E0,0E0,3.4484097E1,3.7733864E1,4.5342064E-1,0E0,0E0,0E0,0E0],"parents":[2147483647,0,0,2,2,3,3,6,6,7,7,8,8],"right_children":[2,-1,4,6,-1,-1,8,10,12,-1,-1,-1,-1],"split_conditions":[1.2003468E0,-4.426875E-2,2.0003451E-1,1.0498892E0,-4.5160674E-2,-4.757061E-2,9.972182E-2,9.497231E-1,1.00725584E-1,-4.6311762E-2,1.9437248E-2,-1.5185697E-2,-4.7963746E-2],"split_indices":[2,0,7,1,0,0,5,0,5,0,0,0,0],"split_type":[0,0,0,0,0,0,0,0,0,0,0,0,0],"sum_hessian":[2.9291748E2,2.6969122E1,2.6594836E2,2.4759697E2,1.8351397E1,1.5117945E1,2.3247903E2,2.166906E2,1.5788427E1,1.3831784E1,2.0285881E2,2.6249673E0,1.316346E1],"tree_param":{"num_deleted":"0","num_feature":"9","num_nodes":"13","size_leaf_vector":"1"}},{"base_weights":[-3.5147253E-2,-4.4206925E-2,8.157385E-2,-4.6636418E-2,1.7869647E-1,-4.581053E-2,2.738227E-1,3.8226932E-1,-1.077399E0,1.9870702E-2,-4.5433305E-2,-4.7045756E-2,-7.6359394E-3],"categories":[],"categories_nodes":[],"categories_segments":[],"categories_sizes":[],"default_left":[0,0,0,0,0,0,0,0,0,0,0,0,0],"id":68,"left_children":[1,-1,3,-1,5,-1,7,9,11,-1,-1,-1,-1],"loss_changes":[3.6428036E1,0E0,3.1955107E1,0E0,3.1101334E1,0E0,3.402385E1,3.767321E1,1.106596E0,0E0,0E0,0E0,0E0],"parents":[2147483647,0,0,2,2,4,4,6,6,7,7,8,8],"right_children":[2,-1,4,-1,6,-1,8,10,12,-1,-1,-1,-1],"split_conditions":[9.003977E0,-4.4206925E-2,1.0498892E0,-4.6636418E-2,9.497231E-1,-4.581053E-2,4.9939285E1,2.0003451E-1,9.794696E1,1.9870702E-2,-4.5433305E-2,-4.7045756E-2,-7.6359394E-3],"split_indices":[6,0,1,0,0,0,8,7,3,0,0,0,0],"split_type":[0,0,0,0,0,0,0,0,0,0,0,0,0],"sum_hessian":[2.8878442E2,2.7487825E1,2.612966E2,1.7845562E1,2.4345105E2,1.5360884E1,2.2809016E2,2.120092E2,1.6080956E1,1.9795244E2,1.4056765E1,1.4014991E1,2.0659654E0],"tree_param":{"num_deleted":"0","num_feature":"9","num_nodes":"13","size_leaf_vector":"1"}},{"base_weights":[-2.9729563E-3,-4.4682663E-2,1.12930335E-1,-4.534383E-2,2.067078E-1,-4.535592E-2,3.0320847E-1,-4.4953063E-2,4.0800685E-1,-4.678032E-2,2.0413205E-2],"categories":[],"categories_nodes":[],"categories_segments":[],"categories_sizes":[],"default_left":[0,0,0,0,0,0,0,0,0,0,0],"id":69,"left_children":[1,-1,3,-1,5,-1,7,-1,9,-1,-1],"loss_changes":[3.6849106E1,0E0,3.0315239E1,0E0,3.147903E1,0E0,3.422155E1,0E0,3.4731388E1,0E0,0E0],"parents":[2147483647,0,0,2,2,4,4,6,6,8,8],"right_children":[2,-1,4,-1,6,-1,8,-1,10,-1,-1],"split_conditions":[4.9809378E-2,-4.4682663E-2,1.2003468E0,-4.534383E-2,9.497231E-1,-4.535592E-2,9.003977E0,-4.4953063E-2,1.0498892E0,-4.678032E-2,2.0413205E-2],"split_indices":[4,0,2,0,0,0,6,0,1,0,0],"split_type":[0,0,0,0,0,0,0,0,0,0,0],"sum_hessian":[2.822208E2,2.5698374E1,2.5652243E2,1.694261E1,2.3957982E2,1.5151789E1,2.2442802E2,1.4490388E1,2.0993764E2,1.1965969E1,1.9797166E2],"tree_param":{"num_deleted":"0","num_feature":"9","num_nodes":"11","size_leaf_vector":"1"}},{"base_weights":[-3.8336996E-2,7.456566E-2,-4.4335824E-2,-4.5877103E-2,1.6836752E-1,2.6372406E-1,-4.48941E-2,-4.477032E-2,3.6721805E-1,-4.6861913E-2,1.906475E-2],"categories":[],"categories_nodes":[],"categories_segments":[],"categories_sizes":[],"default_left":[0,0,0,0,0,0,0,0,0,0,0],"id":70,"left_children":[1,3,-1,-1,5,7,-1,-1,9,-1,-1],"loss_changes":[3.4077785E1,2.9313982E1,0E0,0E0,2.9516973E1,3.224011E1,0E0,0E0,3.5585575E1,0E0,0E0],"parents":[2147483647,0,0,1,1,4,4,5,5,8,8],"right_children":[2,4,-1,-1,6,8,-1,-1,10,-1,-1],"split_conditions":[9.972182E-2,7.00002E1,-4.4335824E-2,-4.5877103E-2,2.0003451E-1,9.003977E0,-4.48941E-2,-4.477032E-2,4.9809378E-2,-4.6861913E-2,1.906475E-2],"split_indices":[5,3,0,0,7,6,0,0,4,0,0],"split_type":[0,0,0,0,0,0,0,0,0,0,0],"sum_hessian":[2.7919516E2,2.5347388E2,2.5721287E1,1.7039957E1,2.3643391E2,2.2112947E2,1.530444E1,1.4508579E1,2.066209E2,1.2880919E1,1.9373997E2],"tree_param":{"num_deleted":"0","num_feature":"9","num_nodes":"11","size_leaf_vector":"1"}},{"base_weights":[-1.4231755E-2,-4.4000726E-2,9.648512E-2,1.902559E-1,-4.507182E-2,-4.408018E-2,2.8655696E-1,3.895531E-1,-1.066709E0,-4.6541724E-2,1.971627E-2,-1.462262E-2,-4.667352E-2],"categories":[],"categories_nodes":[],"categories_segments":[],"categories_sizes":[],"default_left":[0,0,0,0,0,0,0,0,0,0,0,0,0],"id":71,"left_children":[1,-1,3,5,-1,-1,7,9,11,-1,-1,-1,-1],"loss_changes":[3.3246525E1,0E0,2.8871433E1,2.9362131E1,0E0,0E0,3.0868942E1,3.3347942E1,4.3693733E-1,0E0,0E0,0E0,0E0],"parents":[2147483647,0,0,2,2,3,3,6,6,7,7,8,8],"right_children":[2,-1,4,6,-1,-1,8,10,12,-1,-1,-1,-1],"split_conditions":[7.00002E1,-4.4000726E-2,5.033128E1,9.003977E0,-4.507182E-2,-4.408018E-2,9.972182E-2,1.0498892E0,1.00725584E-1,-4.6541724E-2,1.971627E-2,-1.462262E-2,-4.667352E-2],"split_indices":[3,0,8,6,0,0,5,1,5,0,0,0,0],"split_type":[0,0,0,0,0,0,0,0,0,0,0,0,0],"sum_hessian":[2.7346494E2,2.4396107E1,2.4906882E2,2.3235287E2,1.6715937E1,1.5173246E1,2.1717964E2,2.026821E2,1.4497534E1,1.181787E1,1.9086423E2,2.6338828E0,1.1863651E1],"tree_param":{"num_deleted":"0","num_feature":"9","num_nodes":"13","size_leaf_vector":"1"}},{"base_weights":[-3.6138464E-2,-4.39069E-2,7.173266E-2,6.6737545E-1,-1.123848E-1,7.614494E-1,-3.1029182E-2,-3.8880444E-1,5.8226585E-1,-1.7336044E-2,8.200854E-1,-3.0863068E-1,-4.6489015E-2,-3.2446653E-2,6.997439E-1,-6.9419495E-3,3.458323E-2,-1.5530818E-2,3.7455983E-2,3.146165E-2,-2.9953275E-2],"categories":[],"categories_nodes":[],"categories_segments":[],"categories_sizes":[],"default_left":[0,0,0,0,0,0,0,0,0,0,0,0,0,0,0,0,0,0,0,0,0],"id":72,"left_children":[1,-1,3,5,7,9,-1,11,13,-1,15,17,-1,-1,19,-1,-1,-1,-1,-1,-1],"loss_changes":[3.1330624E1,0E0,2.7326593E1,8.693151E0,3.67784E1,4.3811874E0,0E0,7.9113274E0,9.595757E0,0E0,2.6266174E0,1.2854243E1,0E0,0E0,7.122507E0,0E0,0E0,0E0,0E0,0E0,0E0],"parents":[2147483647,0,0,2,2,3,3,4,4,5,5,7,7,8,8,10,10,11,11,14,14],"right_children":[2,-1,4,6,8,10,-1,12,14,-1,16,18,-1,-1,20,-1,-1,-1,-1,-1,-1],"split_conditions":[1.2003468E0,-4.39069E-2,1.606E0,5.033128E1,1.6098636E0,7.06036E1,-3.1029182E-2,4.9939285E1,8.963225E0,-1.7336044E-2,9.6493316E-1,4.29543E1,-4.6489015E-2,-3.2446653E-2,1.00725584E-1,-6.9419495E-3,3.458323E-2,-1.5530818E-2,3.7455983E-2,3.146165E-2,-2.9953275E-2],"split_indices":[2,0,2,8,2,3,0,8,6,0,0,8,0,0,5,0,0,0,0,0,0],"split_type":[0,0,0,0,0,0,0,0,0,0,0,0,0,0,0,0,0,0,0,0,0],"sum_hessian":[2.706876E2,2.4039238E1,2.4664835E2,5.7623295E1,1.8902504E2,5.4693993E1,2.9293022E0,1.3569913E2,5.3325924E1,2.1199443E0,5.2574047E1,1.2459192E2,1.1107201E1,3.529131E0,4.979679E1,2.007875E0,5.0566174E1,1.1795301E2,6.6389074E0,4.756425E1,2.2325423E0],"tree_param":{"num_deleted":"0","num_feature":"9","num_nodes":"21","size_leaf_vector":"1"}},{"base_weights":[-4.023793E-2,6.717942E-2,-4.374503E-2,-4.4884257E-2,1.5858115E-1,2.5096422E-1,-4.45162E-2,-4.507402E-2,3.507502E-1,-4.3704916E-2,1.8575663E-2],"categories":[],"categories_nodes":[],"categories_segments":[],"categories_sizes":[],"default_left":[0,0,0,0,0,0,0,0,0,0,0],"id":73,"left_children":[1,3,-1,-1,5,7,-1,-1,9,-1,-1],"loss_changes":[3.0680347E1,2.6810883E1,0E0,0E0,2.716809E1,2.9914917E1,0E0,0E0,3.354545E1,0E0,0E0],"parents":[2147483647,0,0,1,1,4,4,5,5,8,8],"right_children":[2,4,-1,-1,6,8,-1,-1,10,-1,-1],"split_conditions":[5.033128E1,7.00002E1,-4.374503E-2,-4.4884257E-2,2.0003451E-1,1.2003468E0,-4.45162E-2,-4.507402E-2,9.003977E0,-4.3704916E-2,1.8575663E-2],"split_indices":[8,3,0,0,7,2,0,0,6,0,0],"split_type":[0,0,0,0,0,0,0,0,0,0,0],"sum_hessian":[2.6825616E2,2.4436592E2,2.389024E1,1.6396368E1,2.2796956E2,2.1349904E2,1.4470525E1,1.3516324E1,1.9998271E2,1.3777352E1,1.8620535E2],"tree_param":{"num_deleted":"0","num_feature":"9","num_nodes":"11","size_leaf_vector":"1"}},{"base_weights":[-4.9888372E-2,6.023952E-2,-1.0808145E0,-4.5776468E-2,1.5104765E-1,-4.5332283E-2,-1.0652287E-2,7.696241E-1,-3.7318844E-2,8.3804095E-1,-1.9394573E-2,-2.9318297E-1,6.105927E-1,-1.2980486E-2,3.584844E-2,-1.4642041E-2,3.715113E-2,-3.1497657E-2,2.8058268E-2],"categories":[],"categories_nodes":[],"categories_segments":[],"categories_sizes":[],"default_left":[0,0,0,0,0,0,0,0,0,0,0,0,0,0,0,0,0,0,0],"id":74,"left_children":[1,3,5,-1,7,-1,-1,9,11,13,-1,15,17,-1,-1,-1,-1,-1,-1],"loss_changes":[3.0360783E1,2.6495888E1,6.012764E-1,0E0,2.6376966E1,0E0,0E0,5.0552273E0,2.9002396E1,3.8274345E0,0E0,1.1530814E1,6.941599E0,0E0,0E0,0E0,0E0,0E0,0E0],"parents":[2147483647,0,0,1,1,2,2,4,4,7,7,8,8,9,9,11,11,12,12],"right_children":[2,4,6,-1,8,-1,-1,10,12,14,-1,16,18,-1,-1,-1,-1,-1,-1],"split_conditions":[9.972182E-2,4.9809378E-2,1.0622141E2,-4.5776468E-2,2.0018998E-1,-4.5332283E-2,-1.0652287E-2,1.9943093E-1,2.0113659E-1,9.5871437E-1,-1.9394573E-2,5.0522078E-2,1.0498892E0,-1.2980486E-2,3.584844E-2,-1.4642041E-2,3.715113E-2,-3.1497657E-2,2.8058268E-2],"split_indices":[5,4,3,0,4,0,0,7,4,0,0,5,1,0,0,0,0,0,0],"split_type":[0,0,0,0,0,0,0,0,0,0,0,0,0,0,0,0,0,0,0],"sum_hessian":[2.6462936E2,2.4002208E2,2.4607294E1,1.57717285E1,2.2425035E2,2.2560856E1,2.0464382E0,5.16068E1,1.7264355E2,4.9391193E1,2.2156053E0,1.2434881E2,4.8294746E1,2.0098557E0,4.7381336E1,1.1822139E2,6.1274214E0,2.3187363E0,4.5976013E1],"tree_param":{"num_deleted":"0","num_feature":"9","num_nodes":"19","size_leaf_vector":"1"}},{"base_weights":[-3.3706006E-2,-4.335545E-2,7.293141E-2,7.029479E-1,-1.0681015E-1,-2.8175246E-2,7.886894E-1,-3.443509E-1,4.991291E-1,8.5196763E-1,-1.7673932E-2,-4.6439636E-2,-2.6968783E-1,-3.1873725E-2,6.0264474E-1,-9.7373575E-3,3.6371496E-2,3.708809E-2,-1.3599313E-2,-2.9941827E-2,2.7315415E-2],"categories":[],"categories_nodes":[],"categories_segments":[],"categories_sizes":[],"default_left":[0,0,0,0,0,0,0,0,0,0,0,0,0,0,0,0,0,0,0,0,0],"id":75,"left_children":[1,-1,3,5,7,-1,9,11,13,15,-1,-1,17,-1,19,-1,-1,-1,-1,-1,-1],"loss_changes":[2.9579754E1,0E0,2.724053E1,7.116768E0,2.711373E1,0E0,4.4601593E0,7.7248E0,7.673415E0,3.405487E0,0E0,0E0,1.0882816E1,0E0,6.014742E0,0E0,0E0,0E0,0E0,0E0,0E0],"parents":[2147483647,0,0,2,2,3,3,4,4,6,6,7,7,8,8,9,9,12,12,14,14],"right_children":[2,-1,4,6,8,-1,10,12,14,16,-1,-1,18,-1,20,-1,-1,-1,-1,-1,-1],"split_conditions":[5.0309673E-2,-4.335545E-2,2.0025E-1,1.0498892E0,2.0113659E-1,-2.8175246E-2,1.9943093E-1,1.0516595E0,9.003977E0,1.2273257E0,-1.7673932E-2,-4.6439636E-2,1.1039429E0,-3.1873725E-2,1.0395E0,-9.7373575E-3,3.6371496E-2,3.708809E-2,-1.3599313E-2,-2.9941827E-2,2.7315415E-2],"split_indices":[4,0,4,1,4,0,7,1,6,2,0,0,1,0,1,0,0,0,0,0,0],"split_type":[0,0,0,0,0,0,0,0,0,0,0,0,0,0,0,0,0,0,0,0,0],"sum_hessian":[2.6118225E2,2.314894E1,2.3803333E2,5.218427E1,1.8584906E2,2.4325624E0,4.9751705E1,1.3400098E2,5.1848083E1,4.774685E1,2.0048585E0,9.65029E0,1.24350685E2,3.1690834E0,4.8678997E1,2.093742E0,4.5653107E1,6.007763E0,1.18342926E2,2.0986476E0,4.658035E1],"tree_param":{"num_deleted":"0","num_feature":"9","num_nodes":"21","size_leaf_vector":"1"}},{"base_weights":[-2.3205975E-2,-4.3297548E-2,8.066036E-2,7.214143E-1,-1.0174478E-1,8.1516343E-1,-2.9297432E-2,-3.2483724E-1,4.89989E-1,8.774408E-1,-1.4037631E-2,-2.4280669E-1,-4.4068415E-2,-3.1815615E-2,5.983956E-1,-9.2972135E-5,3.6841292E-2,-1.247238E-2,3.6822565E-2,-2.6283242E-2,2.6974512E-2],"categories":[],"categories_nodes":[],"categories_segments":[],"categories_sizes":[],"default_left":[0,0,0,0,0,0,0,0,0,0,0,0,0,0,0,0,0,0,0,0,0],"id":76,"left_children":[1,-1,3,5,7,9,-1,11,13,15,-1,17,-1,-1,19,-1,-1,-1,-1,-1,-1],"loss_changes":[2.847362E1,0E0,2.7619574E1,7.859953E0,2.4448639E1,4.039585E0,0E0,8.108166E0,7.6162043E0,1.92416E0,0E0,1.0173615E1,0E0,0E0,5.0650578E0,0E0,0E0,0E0,0E0,0E0,0E0],"parents":[2147483647,0,0,2,2,3,3,4,4,5,5,7,7,8,8,9,9,11,11,14,14],"right_children":[2,-1,4,6,8,10,-1,12,14,16,-1,18,-1,-1,20,-1,-1,-1,-1,-1,-1],"split_conditions":[5.0309673E-2,-4.3297548E-2,2.0025E-1,2.0003451E-1,2.0113659E-1,4.972159E1,-2.9297432E-2,9.972182E-2,9.003977E0,9.166635E0,-1.4037631E-2,5.0522078E-2,-4.4068415E-2,-3.1815615E-2,1.2048715E0,-9.2972135E-5,3.6841292E-2,-1.247238E-2,3.6822565E-2,-2.6283242E-2,2.6974512E-2],"split_indices":[4,0,4,7,4,8,0,5,6,6,0,5,0,0,2,0,0,0,0,0,0],"split_type":[0,0,0,0,0,0,0,0,0,0,0,0,0,0,0,0,0,0,0,0,0],"sum_hessian":[2.5574442E2,2.1914684E1,2.3382974E2,5.115042E1,1.8267932E2,4.8611725E1,2.5386953E0,1.3317906E2,4.9500248E1,4.6510574E1,2.1011493E0,1.2200071E2,1.117836E1,3.1868389E0,4.6313408E1,2.1410892E0,4.4369488E1,1.1608E2,5.9207034E0,2.0436206E0,4.4269787E1],"tree_param":{"num_deleted":"0","num_feature":"9","num_nodes":"21","size_leaf_vector":"1"}},{"base_weights":[-4.8140652E-2,-4.3329876E-2,5.7149302E-2,-4.4868357E-2,1.4736278E-1,-4.466388E-2,2.4093366E-1,-4.5030873E-2,3.3926374E-1,1.824439E-2,-4.1699428E-2],"categories":[],"categories_nodes":[],"categories_segments":[],"categories_sizes":[],"default_left":[0,0,0,0,0,0,0,0,0,0,0],"id":77,"left_children":[1,-1,3,-1,5,-1,7,-1,9,-1,-1],"loss_changes":[2.8249264E1,0E0,2.5076727E1,0E0,2.6170982E1,0E0,2.7961277E1,0E0,3.1583923E1,0E0,0E0],"parents":[2147483647,0,0,2,2,4,4,6,6,8,8],"right_children":[2,-1,4,-1,6,-1,8,-1,10,-1,-1],"split_conditions":[1.2003468E0,-4.3329876E-2,9.497231E-1,-4.4868357E-2,7.00002E1,-4.466388E-2,9.003977E0,-4.5030873E-2,4.9939285E1,1.824439E-2,-4.1699428E-2],"split_indices":[2,0,0,0,3,0,6,0,8,0,0],"split_type":[0,0,0,0,0,0,0,0,0,0,0],"sum_hessian":[2.5637704E2,2.2729275E1,2.3364777E2,1.5554978E1,2.1809279E2,1.4054562E1,2.0403822E2,1.2784784E1,1.9125343E2,1.7714928E2,1.4104159E1],"tree_param":{"num_deleted":"0","num_feature":"9","num_nodes":"11","size_leaf_vector":"1"}},{"base_weights":[-4.314173E-2,-4.3807548E-2,5.8466345E-2,6.842992E-1,-1.1744713E-1,-2.9452464E-2,7.7741784E-1,-3.3675316E-1,4.751163E-1,-8.695898E-3,8.399598E-1,-4.5580197E-2,-2.603066E-1,5.815847E-1,-3.2002762E-2,-9.916347E-3,3.6024373E-2,3.679851E-2,-1.3204377E-2,-3.0049443E-2,2.677191E-2],"categories":[],"categories_nodes":[],"categories_segments":[],"categories_sizes":[],"default_left":[0,0,0,0,0,0,0,0,0,0,0,0,0,0,0,0,0,0,0,0,0],"id":78,"left_children":[1,-1,3,5,7,-1,9,11,13,-1,15,-1,17,19,-1,-1,-1,-1,-1,-1,-1],"loss_changes":[2.7109686E1,0E0,2.5560598E1,7.4292793E0,2.3705555E1,0E0,3.296053E0,7.6638966E0,7.22705E0,0E0,3.3635254E0,0E0,1.044502E1,6.0019855E0,0E0,0E0,0E0,0E0,0E0,0E0,0E0],"parents":[2147483647,0,0,2,2,3,3,4,4,6,6,7,7,8,8,10,10,12,12,13,13],"right_children":[2,-1,4,6,8,-1,10,12,14,-1,16,-1,18,20,-1,-1,-1,-1,-1,-1,-1],"split_conditions":[4.9809378E-2,-4.3807548E-2,2.0025E-1,9.497231E-1,2.0113659E-1,-2.9452464E-2,9.117783E0,1.2003468E0,5.033128E1,-8.695898E-3,7.1451775E1,-4.5580197E-2,1.2607161E0,9.405E-1,-3.2002762E-2,-9.916347E-3,3.6024373E-2,3.679851E-2,-1.3204377E-2,-3.0049443E-2,2.677191E-2],"split_indices":[4,0,4,0,4,0,6,2,8,0,3,0,2,0,0,0,0,0,0,0,0],"split_type":[0,0,0,0,0,0,0,0,0,0,0,0,0,0,0,0,0,0,0,0,0],"sum_hessian":[2.5071826E2,2.1135176E1,2.2958308E2,4.97373E1,1.798458E2,2.4836936E0,4.725361E1,1.3176627E2,4.807952E1,2.5246973E0,4.4728912E1,9.892432E0,1.2187383E2,4.5049362E1,3.0301569E0,2.079268E0,4.2649643E1,5.9092164E0,1.1596462E2,2.1507342E0,4.289863E1],"tree_param":{"num_deleted":"0","num_feature":"9","num_nodes":"21","size_leaf_vector":"1"}},{"base_weights":[-4.3544877E-2,-4.4053458E-2,5.450659E-2,-4.4302218E-2,1.4335084E-1,2.4469E-1,-1.0408919E0,-4.555519E-2,3.4383973E-1,-1.2721484E-2,-4.558182E-2,-4.491869E-2,1.7933559E-2],"categories":[],"categories_nodes":[],"categories_segments":[],"categories_sizes":[],"default_left":[0,0,0,0,0,0,0,0,0,0,0,0,0],"id":79,"left_children":[1,-1,3,-1,5,7,9,-1,11,-1,-1,-1,-1],"loss_changes":[2.6271048E1,0E0,2.3974459E1,0E0,2.6150347E1,2.7831882E1,6.443958E-1,0E0,2.9299976E1,0E0,0E0,0E0,0E0],"parents":[2147483647,0,0,2,2,4,4,5,5,6,6,8,8],"right_children":[2,-1,4,-1,6,8,10,-1,12,-1,-1,-1,-1],"split_conditions":[1.2003468E0,-4.4053458E-2,9.497231E-1,-4.4302218E-2,9.972182E-2,1.0498892E0,1.00725584E-1,-4.555519E-2,4.9809378E-2,-1.2721484E-2,-4.558182E-2,-4.491869E-2,1.7933559E-2],"split_indices":[2,0,0,0,5,1,5,0,4,0,0,0,0],"split_type":[0,0,0,0,0,0,0,0,0,0,0,0,0],"sum_hessian":[2.5038916E2,2.0285696E1,2.3010345E2,1.5285651E1,2.1481781E2,1.9883907E2,1.5978748E1,1.2387485E1,1.8645157E2,2.6492605E0,1.3329488E1,1.1558465E1,1.7489311E2],"tree_param":{"num_deleted":"0","num_feature":"9","num_nodes":"13","size_leaf_vector":"1"}},{"base_weights":[-2.2149077E-2,-4.3755464E-2,7.683601E-2,1.6683798E-1,-4.3794382E-2,-4.429458E-2,2.6133126E-1,-4.4166166E-2,3.616036E-1,-4.2072527E-2,1.8797163E-2],"categories":[],"categories_nodes":[],"categories_segments":[],"categories_sizes":[],"default_left":[0,0,0,0,0,0,0,0,0,0,0],"id":80,"left_children":[1,-1,3,5,-1,-1,7,-1,9,-1,-1],"loss_changes":[2.6261353E1,0E0,2.3949211E1,2.5657122E1,0E0,0E0,2.7432125E1,0E0,2.8839073E1,0E0,0E0],"parents":[2147483647,0,0,2,2,3,3,6,6,8,8],"right_children":[2,-1,4,6,-1,-1,8,-1,10,-1,-1],"split_conditions":[1.0498892E0,-4.3755464E-2,2.0003451E-1,7.00002E1,-4.3794382E-2,-4.429458E-2,9.497231E-1,-4.4166166E-2,9.003977E0,-4.2072527E-2,1.8797163E-2],"split_indices":[1,0,7,3,0,0,0,0,6,0,0],"split_type":[0,0,0,0,0,0,0,0,0,0,0],"sum_hessian":[2.4443826E2,1.9732992E1,2.2470526E2,2.097111E2,1.4994153E1,1.3517135E1,1.9619397E2,1.2531516E1,1.8366246E2,1.2264326E1,1.7139813E2],"tree_param":{"num_deleted":"0","num_feature":"9","num_nodes":"11","size_leaf_vector":"1"}},{"base_weights":[-4.2402845E-2,6.3459896E-2,-1.0602887E0,1.5391323E-1,-4.366631E-2,-4.4501577E-2,-1.2132109E-2,-4.3776672E-2,2.4804994E-1,-4.3427594E-2,3.5076916E-1,1.853692E-2,-4.4109486E-2],"categories":[],"categories_nodes":[],"categories_segments":[],"categories_sizes":[],"default_left":[0,0,0,0,0,0,0,0,0,0,0,0,0],"id":81,"left_children":[1,3,5,7,-1,-1,-1,-1,9,-1,11,-1,-1],"loss_changes":[2.6267397E1,2.3128803E1,3.6174774E-1,2.4385628E1,0E0,0E0,0E0,0E0,2.670223E1,0E0,2.9915958E1,0E0,0E0],"parents":[2147483647,0,0,1,1,2,2,3,3,8,8,10,10],"right_children":[2,4,6,8,-1,-1,-1,-1,10,-1,12,-1,-1],"split_conditions":[9.972182E-2,2.0003451E-1,1.2669913E0,9.497231E-1,-4.366631E-2,-4.4501577E-2,-1.2132109E-2,-4.3776672E-2,5.0309673E-2,-4.3427594E-2,5.033128E1,1.853692E-2,-4.4109486E-2],"split_indices":[5,7,0,0,0,0,0,0,4,0,8,0,0],"split_type":[0,0,0,0,0,0,0,0,0,0,0,0,0],"sum_hessian":[2.4089253E2,2.1912946E2,2.1763083E1,2.0426114E2,1.4868316E1,1.9707071E1,2.0560107E0,1.3354623E1,1.9090651E2,1.2760685E1,1.7814583E2,1.6615427E2,1.1991569E1],"tree_param":{"num_deleted":"0","num_feature":"9","num_nodes":"13","size_leaf_vector":"1"}},{"base_weights":[-3.157665E-2,-4.3086458E-2,6.551262E-2,1.5815969E-1,-1.0277059E0,2.469698E-1,-4.3268662E-2,-4.4179924E-2,-1.4300582E-2,-4.2782255E-2,3.4422177E-1,-4.161847E-2,1.8107168E-2],"categories":[],"categories_nodes":[],"categories_segments":[],"categories_sizes":[],"default_left":[0,0,0,0,0,0,0,0,0,0,0,0,0],"id":82,"left_children":[1,-1,3,5,7,9,-1,-1,-1,-1,11,-1,-1],"loss_changes":[2.4526714E1,0E0,2.2435701E1,2.273862E1,2.702179E-1,2.4918879E1,0E0,0E0,0E0,0E0,2.7468195E1,0E0,0E0],"parents":[2147483647,0,0,2,2,3,3,4,4,5,5,10,10],"right_children":[2,-1,4,6,8,10,-1,-1,-1,-1,12,-1,-1],"split_conditions":[4.9809378E-2,-4.3086458E-2,4.9939285E1,2.0003451E-1,1.2094653E0,1.2003468E0,-4.3268662E-2,-4.4179924E-2,-1.4300582E-2,-4.2782255E-2,9.003977E0,-4.161847E-2,1.8107168E-2],"split_indices":[4,0,8,7,0,2,0,0,0,0,6,0,0],"split_type":[0,0,0,0,0,0,0,0,0,0,0,0,0],"sum_hessian":[2.3857593E2,1.9329288E1,2.1924664E2,2.0314828E2,1.6098358E1,1.9054175E2,1.2606537E1,1.361183E1,2.4865294E0,1.2211108E1,1.7833064E2,1.2137421E1,1.6619322E2],"tree_param":{"num_deleted":"0","num_feature":"9","num_nodes":"13","size_leaf_vector":"1"}},{"base_weights":[-4.7566038E-2,4.7707893E-2,-4.393937E-2,1.3785024E-1,-1.0675926E0,-4.410727E-2,2.2839516E-1,-4.531951E-2,-1.5350766E-2,-4.5038674E-2,3.2284227E-1,-4.2756565E-2,1.7253391E-2],"categories":[],"categories_nodes":[],"categories_segments":[],"categories_sizes":[],"default_left":[0,0,0,0,0,0,0,0,0,0,0,0,0],"id":83,"left_children":[1,3,-1,5,7,-1,9,-1,-1,-1,11,-1,-1],"loss_changes":[2.4172062E1,2.2289583E1,0E0,2.3297882E1,6.760216E-2,0E0,2.4991777E1,0E0,0E0,0E0,2.782587E1,0E0,0E0],"parents":[2147483647,0,0,1,1,3,3,4,4,6,6,10,10],"right_children":[2,4,-1,6,8,-1,10,-1,-1,-1,12,-1,-1],"split_conditions":[1.00725584E-1,4.9939285E1,-4.393937E-2,7.00002E1,1.032034E2,-4.410727E-2,1.0498892E0,-4.531951E-2,-1.5350766E-2,-4.5038674E-2,1.2003468E0,-4.2756565E-2,1.7253391E-2],"split_indices":[5,8,0,3,3,0,1,0,0,0,2,0,0],"split_type":[0,0,0,0,0,0,0,0,0,0,0,0,0],"sum_hessian":[2.3854105E2,2.1967607E2,1.8864979E1,2.0430481E2,1.5371261E1,1.2909995E1,1.9139482E2,1.3176705E1,2.1945558E0,1.15535345E1,1.7984128E2,1.2170599E1,1.6767068E2],"tree_param":{"num_deleted":"0","num_feature":"9","num_nodes":"13","size_leaf_vector":"1"}},{"base_weights":[-3.88687E-2,6.322595E-2,-1.0490699E0,-9.8829694E-2,6.818849E-1,-4.4125408E-2,-1.1713739E-2,5.1162064E-1,-3.1483003E-1,7.584356E-1,-2.203441E-2,-3.0475063E-2,6.177094E-1,-2.3281506E-1,-4.4911746E-2,8.2005835E-1,-1.0841687E-2,-2.0997314E-2,2.7836861E-2,-1.2423019E-2,3.4753047E-2,-1.5590789E-3,3.507613E-2],"categories":[],"categories_nodes":[],"categories_segments":[],"categories_sizes":[],"default_left":[0,0,0,0,0,0,0,0,0,0,0,0,0,0,0,0,0,0,0,0,0,0,0],"id":84,"left_children":[1,3,5,7,9,-1,-1,11,13,15,-1,-1,17,19,-1,21,-1,-1,-1,-1,-1,-1,-1],"loss_changes":[2.4300768E1,2.1540518E1,3.5695267E-1,2.2599258E1,4.7299137E0,0E0,0E0,6.601184E0,7.9325085E0,3.0218391E0,0E0,0E0,4.21591E0,1.0244251E1,0E0,2.1049194E0,0E0,0E0,0E0,0E0,0E0,0E0,0E0],"parents":[2147483647,0,0,1,1,2,2,3,3,4,4,7,7,8,8,9,9,12,12,13,13,15,15],"right_children":[2,4,6,8,10,-1,-1,12,14,16,-1,-1,18,20,-1,22,-1,-1,-1,-1,-1,-1,-1],"split_conditions":[9.972182E-2,5.3674236E-2,1.0083501E2,4.95E-2,4.9939285E1,-4.4125408E-2,-1.1713739E-2,5.0309673E-2,4.9939285E1,1.9793533E-1,-2.203441E-2,-3.0475063E-2,7.06036E1,4.221062E1,-4.4911746E-2,1.2323911E0,-1.0841687E-2,-2.0997314E-2,2.7836861E-2,-1.2423019E-2,3.4753047E-2,-1.5590789E-3,3.507613E-2],"split_indices":[5,5,3,5,8,0,0,4,8,7,0,0,3,8,0,2,0,0,0,0,0,0,0],"split_type":[0,0,0,0,0,0,0,0,0,0,0,0,0,0,0,0,0,0,0,0,0,0,0],"sum_hessian":[2.3269078E2,2.1226447E2,2.0426323E1,1.6887491E2,4.3389553E1,1.8426245E1,2.000077E0,4.3586746E1,1.2528816E2,4.1363785E1,2.0257673E0,2.70887E0,4.0877876E1,1.15258064E2,1.0030099E1,3.934963E1,2.0141573E0,2.0977774E0,3.8780098E1,1.0854852E2,6.709536E0,2.3564932E0,3.6993137E1],"tree_param":{"num_deleted":"0","num_feature":"9","num_nodes":"23","size_leaf_vector":"1"}},{"base_weights":[-2.7181238E-2,6.5764114E-2,-4.2317502E-2,-4.3244008E-2,1.5157358E-1,-4.3475125E-2,2.426132E-1,-4.431456E-2,3.3996955E-1,-4.1364845E-2,1.8002853E-2],"categories":[],"categories_nodes":[],"categories_segments":[],"categories_sizes":[],"default_left":[0,0,0,0,0,0,0,0,0,0,0],"id":85,"left_children":[1,3,-1,-1,5,-1,7,-1,9,-1,-1],"loss_changes":[2.2012976E1,2.0775799E1,0E0,0E0,2.2394701E1,0E0,2.4588604E1,0E0,2.6638094E1,0E0,0E0],"parents":[2147483647,0,0,1,1,4,4,6,6,8,8],"right_children":[2,4,-1,-1,6,-1,8,-1,10,-1,-1],"split_conditions":[2.0003451E-1,9.497231E-1,-4.2317502E-2,-4.3244008E-2,7.00002E1,-4.3475125E-2,1.0498892E0,-4.431456E-2,9.003977E0,-4.1364845E-2,1.8002853E-2],"split_indices":[7,0,0,0,3,0,1,0,6,0,0],"split_type":[0,0,0,0,0,0,0,0,0,0,0],"sum_hessian":[2.2666385E2,2.088572E2,1.7806646E1,1.3489032E1,1.9536816E2,1.2404169E1,1.8296399E2,1.1396404E1,1.715676E2,1.1912927E1,1.5965466E2],"tree_param":{"num_deleted":"0","num_feature":"9","num_nodes":"11","size_leaf_vector":"1"}},{"base_weights":[-4.3616354E-2,-4.2988643E-2,4.8632514E-2,-4.3119144E-2,1.3184443E-1,2.2216648E-1,-4.2738844E-2,3.2601744E-1,-9.979552E-1,-4.209461E-2,1.7498782E-2,-1.2210237E-2,-4.444402E-2],"categories":[],"categories_nodes":[],"categories_segments":[],"categories_sizes":[],"default_left":[0,0,0,0,0,0,0,0,0,0,0,0,0],"id":86,"left_children":[1,-1,3,-1,5,7,-1,9,11,-1,-1,-1,-1],"loss_changes":[2.1977346E1,0E0,1.9907614E1,0E0,2.1682154E1,2.3809034E1,0E0,2.6882143E1,6.0807514E-1,0E0,0E0,0E0,0E0],"parents":[2147483647,0,0,2,2,4,4,5,5,7,7,8,8],"right_children":[2,-1,4,-1,6,8,-1,10,12,-1,-1,-1,-1],